211 64
140 0.62051433 -1.0382574 1.5143166 1.6466205 2.5377424 2.486983 0.80444336 2.6195257 5.6407065 -0.9887168 -1.4667275 -1.0857878 -3.0235405 -0.2813381 -0.113660365 -0.11652783 3.0651698 -2.7677135 -3.7641003 -1.6776555 -1.7102959 -2.2354345 -0.5615434 0.31394768 2.99925 2.644431 -0.3418922 1.8850794 -1.2669222 1.8623452 1.2918512 1.3702747 1.8871638 0.15063092 3.223711 -0.83664566 -0.028153403 -2.3081212 0.31973177 1.3873643 -0.7461592 -1.1908096 2.107397 0.7722563 3.643846 -2.8844228 0.3821704 1.5081611 1.5372956 1.3759118 0.33094844 -1.3761927 -0.1982656 1.9151264 0.16732402 1.2973106 -0.54353476 1.5561646 0.2867166 3.8464074 -1.3960661 0.7002169 1.673473 0.9792892
184 -0.55168676 -4.593045 -2.2912493 0.02718548 -1.5602051 -1.4137636 2.3021412 -2.4574208 2.5274246 -3.250112 0.2709147 -1.9171846 1.2265044 2.0797195 -1.4810199 -0.91217923 1.6617037 -3.1272025 -2.6507392 0.035471104 3.760473 2.2082064 1.9154475 -1.8157277 0.4752019 1.2502244 -0.016739855 0.37385073 2.0366843 -0.5446208 -3.31603 2.2385757 -3.9679923 0.79087746 1.7137194 -2.0104072 1.6345514 -1.0867897 3.8918004 2.1784894 -1.1210234 -0.8105922 2.094466 0.0030131 -4.0145135 0.20568162 0.51086575 -2.827884 0.2584627 0.005770374 1.2141536 0.81948096 1.0584136 -0.9461552 0.47036323 -0.92161286 0.5669954 -2.2055962 3.2512217 1.4625328 1.260006 1.3018318 -0.6780939 1.1196897
73 1.2623248 0.47322223 4.053685 -2.7711449 -3.4415667 0.88526225 -1.083149 -4.373124 -2.6988015 0.5735861 -2.1119113 -1.335482 0.55577594 -1.8806089 0.7006419 -1.3376862 0.75007796 3.4060214 0.38714737 -0.10229312 -0.33293796 -1.6032114 -0.01928321 -1.4188461 0.14461641 -1.3296279 0.8770067 -0.66453826 3.2856612 0.7495279 -0.27731574 1.2411281 -2.4556026 -0.18286312 -0.6012516 0.62158614 2.64691 -1.2739159 -1.3733122 -4.384284 1.6712303 -0.560478 -0.18133709 -1.2417806 0.7880258 -0.5890638 1.118435 1.6137811 -0.13029672 0.55247563 -2.574918 -0.9896328 1.1987154 -0.18078351 -0.7039677 1.8836298 -0.31780908 2.3161588 -2.4931133 0.8231417 0.48831514 3.294506 -0.8667566 -1.6788298
66 0.99925345 0.08823397 3.6154006 -1.2959347 -2.253006 0.96061885 2.3999994 1.4981674 -3.0322936 -1.5286247 -2.146868 2.3267272 3.501726 -4.043598 -0.3130501 2.9869316 -1.8108854 2.4665723 0.51364917 1.0657755 1.7760689 -1.7515281 -1.567594 -3.4033952 -1.8859638 -0.695579 0.15220544 0.048087426 2.2091858 -0.017877242 2.0643373 0.9143157 -0.576059 1.3743821 -2.7374182 3.1023295 -0.70676666 0.94427866 -4.2112236 -2.5672107 2.4094806 -0.23869732 -2.3051443 -0.41005212 -2.9004164 -1.9331856 1.3580734 -0.11750747 -0.44421843 2.179087 -2.4763558 -1.7151778 2.8121152 2.1004703 -0.2557208 -1.0718539 -0.5748318 0.704275 -1.9984466 -0.13925332 0.8717255 -1.2451168 1.3469743 -1.0675144
117 -0.68716455 -1.3367906 0.0744472 -0.05265003 0.049438395 1.2471982 -0.42549378 -0.59999144 3.920492 -3.7606454 0.075491905 -2.0934 -2.403886 1.6376578 0.78240305 -0.9353117 -0.17772475 -2.8539255 -3.370915 -0.4354749 -1.2741134 -4.607878 0.16206528 -1.0521078 1.4692843 2.7979972 -2.3941212 3.10844 -0.7606414 1.9479238 -0.83369064 1.200813 0.09992381 -0.7368667 1.6656997 -2.746121 1.1228937 -1.1956619 1.0765382 3.3074605 -0.7168641 -0.99758 -0.270093 1.0646627 2.7240486 -2.581829 0.32469898 -1.1666219 4.085557 -1.4570694 0.09857864 -0.9658257 -0.668651 -1.0430155 0.8809076 0.92153 -0.3658329 2.6111 3.3002076 2.1310613 2.5909524 1.3622231 3.2591596 -0.14441201
192 1.8184152 3.5412588 -1.0107255 -0.9274395 3.3861735 -2.0614862 1.5925906 -1.6559685 1.0675048 -2.306422 0.05756989 -1.9577863 -0.9960839 2.0036657 -1.4289008 0.86781865 2.4228015 -3.8721225 1.3241329 0.7242686 1.6116867 4.96268 2.3657951 -1.0458612 0.07434537 -0.17808315 1.8545159 1.3694293 2.2010045 0.8030156 -1.428753 -1.9718946 -3.0745547 -0.66063064 1.8634377 0.36138162 -4.219708 -1.214312 2.6642056 -2.4759226 1.2771602 -1.1335044 3.769361 2.9979722 -0.93173146 0.7341232 0.19814368 -0.29784828 -2.6454437 0.95787376 3.4113927 0.39845696 -0.8117535 -0.3659037 -0.8790272 0.38070813 -0.53238034 -1.0276164 1.6096972 -0.40192443 0.72955316 -1.0429643 2.8506434 -0.21375488
47 -1.3886517 0.30871177 -1.3115029 -2.9744022 0.253671 -0.36376783 3.9893932 2.6511576 -2.5033798 -0.34956685 -2.5477233 0.48492414 1.9347088 -2.9694397 2.5046153 0.59173137 -1.5466528 1.4253229 2.041481 -0.25043198 2.1479106 -3.4429736 2.0113587 -1.6183572 -1.7586874 0.6558318 1.4781047 1.2188836 0.78082275 2.276427 1.9050943 -1.3709135 -1.0582719 1.0000368 1.0952878 2.535898 -2.5095906 -1.041077 -2.2528796 -1.4231746 2.1081765 -0.07412703 -4.503694 1.6111045 0.37509337 0.6773541 0.3658932 0.5787636 -1.3916457 1.0407258 -0.64840794 -0.70141286 -1.6391495 0.8488604 0.042432882 -6.1265664 1.6265584 -1.2127366 -0.70789546 -0.086086445 -2.2290633 -0.7861155 0.046956453 -0.54859877
40 -1.4622593 2.4957287 0.36135384 -0.031208627 -0.8930727 -2.6941655 2.2570176 0.8720155 -2.5379848 -1.2169871 -0.25103512 3.559433 1.1477984 -1.7153717 0.3981346 3.1300545 -1.2412499 0.2136236 0.6962758 -0.19977875 2.5579913 -4.0636277 1.0302286 0.17663725 -2.159098 -1.7002698 1.0954449 -1.527678 -1.0037642 -1.2271454 2.4526582 0.8549482 -2.0053074 2.9261255 -3.7482717 0.64127815 -1.8353833 0.89287907 -3.881047 -1.4286174 2.6981778 1.9646598 -4.335523 -2.0956473 -2.5641217 -1.3255683 -0.24836937 2.5861425 -1.1194357 0.9847774 -3.3746758 -1.950752 -0.07957598 2.6841972 0.12676191 -1.1645103 -0.06981891 3.4140823 0.3553434 -0.5483543 0.6896095 0.1674413 0.9321739 0.54556805
2 0.9871996 2.45838 -0.86172163 2.0765476 1.2057309 -2.9397373 -2.3839695 0.9028315 -2.7478888 3.5309134 2.7935688 2.2814217 1.4614817 -2.5674903 0.4489245 1.1948469 -1.9016579 0.2704296 -1.672633 2.4145827 -0.7271934 -0.45645553 -0.8606082 -0.4702109 1.7829524 -0.48289394 1.922742 -1.3322605 -1.6486446 -1.9215505 -0.88250494 0.19895427 -0.20641816 -1.8663954 0.5360449 0.272225 -0.608602 1.2380826 -3.352244 0.8051902 0.511521 0.8164777 0.7833292 -1.371104 -0.2686598 -0.44221693 3.2054536 4.3427396 3.748958 -3.2743704 1.7744789 0.88676137 -1.4386744 -0.03455832 1.4049157 2.1258173 0.9852894 -0.5382699 2.6269214 -1.4372252 -0.34184194 -0.07872251 -3.6083505 -2.6308389
103 -2.09101 3.1074667 -0.85170096 1.6413621 1.8412235 2.6726902 -0.27234137 2.223925 -0.40539083 4.047016 -1.0990295 -0.42198604 -0.9657801 3.4147391 0.7552135 0.93519175 -2.150383 1.205795 1.2695956 1.8986081 0.7299025 5.639752 -1.6393986 -1.1646708 2.3300705 -1.1796654 -0.582957 3.1544683 -2.8343575 -1.5407826 0.46589074 0.4882149 -0.84644455 2.5035918 1.6240345 -0.5011316 -0.9285931 -1.0360717 -0.31495535 -2.2642648 -0.03767476 1.5225757 3.0390806 2.7021286 0.11016033 4.1046357 -1.3848617 0.65567905 -3.850097 0.15043344 1.3976432 -3.1907148 0.4633096 0.84188825 1.2279534 -1.9512422 1.6354979 0.9378527 -1.4799805 -1.5860708 1.0295029 1.9214476 2.877492 -1.7527671
65 -0.23673503 0.53467536 0.7693044 -0.83192027 -3.922871 1.5766367 0.20994739 2.4793975 -3.8709197 -1.2449362 -2.2807891 2.9980273 0.010325135 -2.2466445 0.55849254 3.7385013 -1.4064387 0.7964784 1.6444796 4.427327 1.0211736 -1.3183272 -0.0431407 -1.6761023 1.3739401 -0.7185771 1.306562 -0.8777198 0.6843748 -1.3611126 1.2588873 0.77441746 -1.5691425 1.0738715 -3.6033638 1.947338 -0.6288939 1.5064523 -4.7059135 -0.9418778 0.5932518 0.0946139 -1.0926255 -0.08915733 -3.5996218 -2.0344934 0.74972826 0.20472197 0.07627087 3.1703973 -2.7439153 2.0310485 -0.29709774 3.0743918 1.6242393 0.6845238 -0.14790106 3.2655945 -1.0282155 -0.010676469 -2.1564395 -1.2190294 -0.5000309 -3.8997855
57 -1.187546 2.582593 1.9312581 -1.1078861 -0.44819415 3.2747376 -1.5740905 0.6514409 2.5319328 1.7880265 1.8032185 3.6815386 -1.1056024 3.7944417 0.99970925 5.7384124 0.22644605 -0.34272134 2.877957 3.2359457 1.7412784 2.3703644 0.3569458 0.5440538 0.4453488 2.731302 0.5750982 0.42861944 -3.7965794 -1.5617175 0.067582496 -1.3657479 -0.9819571 2.9650269 -1.0606717 0.56138206 -1.0538179 3.8770812 -2.2008772 0.926337 2.0271876 0.9742661 -0.00037080902 1.2246282 0.23781747 0.01774752 -0.48707986 2.8678906 -2.4436712 -0.6932121 -0.46672314 1.3663052 -0.08920626 2.1399581 2.6919653 0.493683 0.83346146 1.4044045 -1.2301126 -2.314813 -2.4268901 1.8661219 -1.6824241 -0.513946
158 -0.7040652 -2.900057 -0.3205981 -1.3214359 0.035297044 0.6602653 1.9093256 1.0985922 3.6671317 -3.6797302 -0.9468824 -0.38422918 0.37624717 0.6360426 1.5321268 -1.1087108 -0.5057587 -3.6084607 -4.6750937 2.5045447 0.8843034 -1.8509082 0.5549636 -2.6894765 0.8363902 2.4778206 -1.0030771 2.8705273 -1.1934369 0.99554956 -2.9053142 1.0291795 1.7296143 -1.8259133 0.79292125 -4.197251 1.761316 -1.6257423 5.0733566 3.43934 -1.7672262 -1.2157304 1.2224268 0.5680229 -3.0352573 -0.4372583 0.516983 -0.98239547 2.5652382 -0.5684211 -0.8769096 -0.1318889 2.012245 -1.1682572 0.64020807 1.8883057 -1.3752398 -0.48869792 1.1641717 2.7417595 -0.41425022 2.0850666 1.8070015 0.0636343
159 1.3772987 -0.7804516 -0.37372062 -1.3699697 -0.6707554 -0.35693622 2.954964 -1.3694311 2.5506852 -2.546237 0.28141823 -1.8599432 -0.79582125 -0.9845718 -0.25140694 0.16848092 -0.67057604 -3.067261 -2.8146393 1.1980788 1.2167004 -1.6364945 2.0075827 -1.9463955 -0.03753805 0.6003772 -0.8127061 1.7757037 -0.62686294 0.96301854 -3.6321054 1.4750422 -0.12401161 0.9236449 0.5652535 -4.3910336 3.076176 0.56392527 3.6693082 4.4382844 -4.0240636 -3.0928593 0.4486307 0.56955475 -1.433381 -0.77157134 -0.7199065 -1.4497793 1.7973119 -2.7690587 -0.8183066 0.7106663 0.25234684 -1.507819 0.6035693 -1.1992147 -0.23246083 -1.604379 1.3449334 3.6648345 1.9084635 0.98086596 1.8716187 0.87909955
160 -0.3435045 -1.9203559 -1.5477582 -0.9412069 -1.9067189 -1.6041305 2.794406 -1.9977688 2.1202984 -3.7931194 0.59008723 -2.5590487 -1.6239741 1.0713372 -0.31705528 -0.8446464 -1.3969711 -2.289365 -2.051971 1.2960904 -0.50828385 -0.8091039 0.6774068 0.21715188 1.037248 1.9380416 0.07822777 -0.39555782 2.7335734 0.7960418 -3.8198845 1.5885761 -3.0619104 2.1778536 0.48168916 -4.3967476 2.008578 0.090973124 3.4070823 4.403543 -2.4363203 -1.5366665 1.1830792 0.5996023 -0.62775683 -2.7073882 0.20671615 -3.6650784 1.8364546 -1.50498 0.36829847 -0.84801155 -0.52183723 -1.0249354 1.7858746 -1.3240525 -0.33500922 -1.3514522 3.0230155 0.9662736 2.565302 0.06288331 1.8575605 0.6559854
174 0.5083325 -0.92926216 -1.0469757 -0.12895435 -0.7463609 -0.58740896 -0.3378134 -1.0784142 -0.7633093 -2.8758528 2.7712705 -2.2433221 0.88359106 1.0420816 1.8557998 1.5732563 0.5582331 0.34711123 -0.1772464 -3.1755378 2.6093454 1.6280246 -1.3141658 1.2656893 1.4978985 -3.2950695 -0.8878677 0.15802348 -0.3317181 1.9155751 1.4877967 2.154535 4.8656507 -3.080269 -1.2375259 -0.15414272 1.3756664 3.29925 0.7134549 0.77449137 -0.7355692 -1.7937206 -1.3745079 -1.9752742 -0.42380628 2.9861557 -2.5604818 -3.5460029 0.31516236 1.3522998 -1.0981487 -0.056418188 -0.91189283 -3.8886256 0.5380563 1.6914961 -1.9999503 -1.0712519 1.8659109 0.86316735 -0.4531405 1.3112851 -2.8136094 0.66306275
89 -0.05960058 0.3741861 -1.517322 0.9002994 -0.96555865 -0.83414257 2.266268 1.3182194 -2.3239512 2.1782367 -1.3065717 -0.08873829 -0.40567422 -1.146856 3.346345 -0.32301533 -2.0759826 1.5624572 1.3179681 1.6575369 1.7036179 -1.1499432 1.482877 -2.9707022 -0.925297 -0.1492775 3.608071 1.8473155 0.7112418 0.98559725 3.397218 -2.5224943 0.51026165 0.19411656 2.7831337 2.9711707 -2.7287853 -1.9227164 -1.8384454 -1.3289315 -0.15948936 0.8904201 -1.7779639 0.4089724 -1.2434479 2.5795012 -3.2405427 -0.3611829 -1.9312826 0.924787 0.9819512 -0.8521961 -1.3512906 0.7412518 1.3326676 -5.078437 0.8769177 -1.1490654 -2.6986136 -2.5511494 -0.07468247 -1.4733014 3.5396602 0.2865188
3 -1.6952906 2.0603 0.24229172 0.82480025 -0.4575424 -2.366725 -2.365062 1.3634642 -2.9712288 2.9072645 3.2873755 3.3653877 2.675734 -2.003508 0.69247574 1.0750319 -2.799513 -0.27569544 -0.10710688 -0.14787136 0.2888735 0.20619327 0.09061861 0.26002893 2.8410077 1.6220803 3.4730527 -0.9699818 -0.8893767 -3.1463232 0.55914843 -0.11486415 -0.5076439 -0.40418947 -0.9878252 1.6068643 0.63034713 0.6085545 -2.1272492 2.0987425 1.3576994 -0.25378153 -0.54096925 -2.0442932 -1.0160033 -0.037149284 3.0714717 2.1896925 1.9079499 -2.4836211 1.1817299 2.2494106 0.5570725 2.0121589 0.32496122 2.915064 3.1440992 1.3943491 3.2103531 -1.02669 -1.188032 0.34035492 -1.708969 -2.5039997
115 -0.26856726 -1.8876009 0.77334434 -0.91519624 2.4870133 0.92320246 -0.084041 3.4660823 4.436348 -3.7129588 -1.1136031 -0.1928436 -1.3070273 -0.36822453 0.71619475 -0.2109247 0.0552329 -2.824306 -4.3708467 0.8914299 -3.121139 -1.6295929 -0.71442044 -0.26702824 1.1313654 2.65966 -1.3184459 0.9449 -2.189804 1.1877263 -0.2995605 0.8348411 3.1495552 -1.0714827 3.332178 -2.7135327 -1.4256849 -2.289548 1.3726004 1.7488384 0.013097312 1.5531585 2.3360689 -0.5335205 2.7232633 -0.8807839 1.3123275 -0.20592292 1.5832889 3.1742508 0.56176126 -1.0005231 -0.6407958 0.1768382 -1.2097785 2.8159983 -0.24699996 2.5265706 -0.6688854 5.1189237 0.23727791 1.0786706 3.505125 -0.36653352
188 1.1077887 1.6610904 -1.9529225 -0.76769495 1.4154134 -2.6002462 2.584849 -2.7991815 -0.25332236 -2.2406383 0.85123074 -1.3484828 0.0047640246 3.3803785 -3.0414767 -1.0459601 3.04418 -1.8586364 1.301392 2.0142965 2.5683732 3.5903141 0.74213666 -2.156626 -0.70913905 1.9865876 0.19160849 -0.13292514 4.327275 1.7481999 -3.6667883 -1.7885998 -3.3301525 1.591613 0.40077966 -1.024006 -1.6377832 -1.1365947 2.3269343 1.3384874 0.6448837 -2.493447 2.8232043 -0.05616149 -1.7629073 -0.32208583 0.51308894 -4.034218 -1.8393908 -0.16566072 3.094888 -0.18088707 -0.33085755 -1.0135248 -0.2108741 -1.622414 -0.3330437 -0.851922 3.1490993 0.37564984 1.9278892 -1.1328386 1.477975 2.514224
37 -2.0630224 2.2938035 0.5829638 -0.23940429 -2.1079326 0.18741769 -0.4329063 1.2255131 -3.090851 1.988571 0.40338933 5.3248296 1.8832545 -0.9416064 -1.4418323 3.2955267 -2.7385101 -0.71763986 0.87880856 2.9590225 0.59599465 1.1663551 -1.812564 -0.061124116 3.1005182 -0.54347175 1.9746654 -0.645199 -2.3289251 -1.0323665 0.202226 0.6206001 -0.80152375 1.9269502 -2.2438133 2.0869005 -0.50527555 2.5395436 -2.940024 3.5657573 2.820112 -1.3882902 0.30325717 -2.4442606 0.95899296 -1.072517 1.7493218 2.1465566 0.85011935 -1.9971807 -0.7594548 1.7085428 -0.4958848 1.8257695 1.5220364 2.0593565 1.2314748 2.4264605 1.2288665 -2.238039 -1.96956 -2.0968697 -1.5168551 -2.4970617
20 2.031237 -1.0881709 -1.4047 3.1735044 1.3298472 -0.9872554 -4.18577 -0.04751014 -2.6265693 1.0707206 1.2949057 1.130766 1.8709319 -2.2711163 -2.0459495 0.66116923 -1.3956856 2.141857 0.39346945 0.8469859 -2.3011212 -0.8246473 -1.1381203 -1.0728824 -0.06715265 -0.30103225 2.6359665 -1.3947486 -0.8766865 -3.6277993 2.3509638 -0.77636343 0.03097733 0.45395866 -1.8919135 -1.8263514 1.0527817 -2.0405843 0.32197976 -1.7462664 -1.2673934 -0.21100539 -1.8188136 -1.4869307 1.677831 0.41846588 3.8416767 1.9179729 3.313451 -2.8088791 2.2590644 0.96317303 -0.7606201 -1.0633768 -1.1704692 3.056589 -1.4752469 -2.4059696 1.7321684 -2.0149157 0.32491046 -0.7066649 -1.336663 -0.9795873
136 0.5827769 -0.8783624 1.054305 1.4675443 1.2638305 4.528788 -0.7269912 1.467679 3.2721753 0.35352576 1.2602292 -0.014551078 -2.5077853 2.8640385 -0.40609288 1.3057675 3.7381737 -1.8235381 -3.0924842 -3.7355192 -2.7165122 0.019346075 0.10305667 1.7801703 -0.3095426 2.7844906 -1.0378704 0.73005474 -1.8188668 0.41057718 -1.2227448 -0.3843345 0.96036243 -1.0199673 2.2312346 -0.13944243 0.813924 -3.2877996 -2.2251399 -0.21052238 -0.48716757 -2.6957958 -0.24745026 1.7498151 3.599516 -2.2969124 -1.9019556 1.0543785 2.8253489 0.29343125 -0.18604608 -2.2405982 -0.14661384 1.6798548 1.7411095 0.38293424 -0.37157872 1.1699907 -0.26828673 4.330692 -0.49103543 -1.3198215 1.2290226 -0.40363526
134 1.7942106 0.44740292 1.9804755 -0.7614071 3.2876892 5.4599724 -0.9058838 2.0247638 3.8399312 2.302545 2.3592544 0.2363833 -2.6655238 2.4933486 -0.2862821 1.2626282 3.0845635 -2.5362809 -1.4260676 -0.94931936 -0.5567356 0.017773377 -1.1211345 4.464474 -0.72456604 2.3010032 -1.1145909 -1.2441094 -0.8496604 -0.32349515 -0.9232799 -2.9043238 -0.20842434 1.0795767 0.9671395 2.0083592 1.4836605 -1.0212135 -3.9325542 0.98561263 -1.5021639 0.29315612 0.51208514 1.3728849 2.113706 -1.477675 -3.0419457 3.01271 -0.81484956 -0.6586694 -1.4559195 0.06979172 1.3083855 1.2856065 1.1604446 1.2205149 -3.3480337 -0.6265638 -0.8671296 1.5264645 -1.9631017 -1.1433357 0.62841535 1.316601
64 0.1277429 1.3915285 0.4726267 -1.7775682 -1.9016196 2.3165343 1.094155 4.311898 -3.8592384 -0.9685658 2.1225154 3.4302266 0.30513433 -0.8976746 0.36295587 4.9005075 -4.179545 0.7746034 2.5862148 2.9993622 -0.4533176 2.663433 -0.8283888 -1.2501607 4.9537873 0.14383948 -0.9633903 -0.5390052 -1.9581391 -1.2709746 0.89122504 1.0975233 -1.6981082 1.771948 -1.1250199 2.7799635 -1.4991479 0.936601 -4.549009 0.04613684 -0.15071298 2.1021743 -0.39619857 -2.1533206 -1.9271414 -1.7383711 0.2733546 0.24514624 0.11800496 -0.4216944 -0.16804795 0.74481463 0.34993744 3.457821 2.7735615 -1.3467216 0.13162556 2.1541188 -1.3379475 -1.8257008 -1.9313124 1.5452142 1.3043761 -1.8100853
161 0.44422585 0.34010416 -0.87462145 -1.8711365 -1.3445917 -2.61493 1.8469398 -2.0344658 2.8775647 -3.221513 -1.2282448 -1.0019032 -1.472549 -0.96823585 -0.8652554 -1.1805451 0.9740718 -2.687045 -2.47278 1.7346345 0.23311013 0.9156433 -0.16938111 -0.14306556 0.25974554 0.13096395 -2.8011985 -0.7018867 3.230486 0.4989897 -4.367526 -0.7041973 -2.8692656 4.2444196 -1.0116727 -3.6543353 1.4061604 -0.48881778 2.1776562 3.0316808 -4.2922525 -1.5613887 0.66075784 0.81557333 -1.3049748 -2.5203414 -3.0213835 -3.5062034 2.1551292 -1.256934 5.1443787 -0.4822368 -0.90666914 -2.0035768 0.58873844 -1.1749059 2.595119 -0.45647582 1.5930644 0.33267465 2.3234928 0.14466755 -1.5785687 2.1745925
39 -1.3410457 1.6352212 -1.3454244 -1.1076981 -1.6755537 -2.009787 -0.48072395 1.5334729 -2.3326843 0.5059169 0.86569196 4.1315374 1.5759891 -2.8391411 0.9821189 2.3657804 -2.099557 0.8111492 1.2579628 0.79739046 3.522329 -1.991732 1.2917328 0.21680905 -0.4569849 -0.40774548 -0.36736438 -1.7056899 -1.7597873 -2.425738 0.09187868 0.97788405 -2.151383 1.9812819 -4.498636 3.3766267 -0.24826735 0.116824634 -2.4464526 -0.8400519 2.7768369 0.9916363 -2.0635638 -2.1044488 -2.6167383 -0.74034303 -0.8845172 2.60666 0.8126679 1.3927789 -2.6993048 1.3908391 0.05384238 3.771513 1.0483099 2.8459373 1.1722535 3.6354861 0.39061198 0.3041261 3.5398197 0.10782466 -0.71465874 -2.6853836
90 -0.7332649 -1.5816694 -1.8246527 -1.7694821 -0.6486038 -2.0099208 1.232273 0.30081376 -0.4744981 0.64983916 0.07554176 2.9299984 1.9478297 0.13166246 1.8873281 0.43158138 -0.48393527 3.9984384 0.79301244 0.56724465 1.0626233 -2.8946972 2.5753803 1.0156244 -1.15034 0.22601424 2.0548477 2.9174988 1.5523567 -1.0734653 -0.6574521 -2.7006416 1.2649077 1.1557785 2.768992 1.936814 -3.6289062 -0.5752532 -0.5951269 -0.4655196 0.79688984 -0.37951973 -1.3976402 2.713332 0.094304405 2.3901615 -2.1044683 1.107678 -2.1255567 2.6861944 -1.7602429 -1.5270965 -3.6402507 0.40890896 -0.5860533 -5.116795 -0.9030103 -0.868984 -0.65829015 -3.4775627 -2.263242 -0.01191606 2.7709122 1.3879445
58 -1.0068223 1.7851844 2.4951742 -2.4514682 0.8891524 2.6279504 -0.87646174 1.2914896 2.7242029 1.8966603 4.31831 2.901078 -1.8904513 2.7794864 1.4851974 4.086788 0.38305822 0.63372636 4.0956006 3.1157072 0.14632742 4.506517 -1.4758452 1.7197692 1.3433555 1.5695415 -1.2154399 -0.14243405 -3.3210738 -0.16439949 -1.0027418 0.3405661 -0.3867807 2.7736552 0.23343141 0.59526885 -0.08839327 1.3778514 -0.2589529 0.15138456 -0.38460043 3.933009 1.2666168 2.3585794 2.2089448 1.0557818 0.22646508 1.6681741 -1.6723132 -0.9374594 0.095469944 0.05003219 0.61808103 0.8824485 4.4323807 -1.3865652 -0.48524684 1.3600752 -2.5267124 -3.8826077 -1.3011825 1.1800417 1.2071404 -0.8309203
196 2.5174181 3.9003277 -0.27737504 1.017738 0.78159 0.877187 0.88613886 1.1038556 0.55132437 0.013602333 -0.36419404 -1.1996096 -1.9109116 1.1188076 -0.6836429 0.36019713 1.7477288 -2.0821943 3.3281806 0.5969798 2.1810396 3.1201208 1.7341411 -0.44045714 1.0515457 -1.9176008 1.5223565 2.5328538 0.3182659 0.76563716 1.0856476 0.30820492 -1.8214993 -1.0068474 2.6725316 0.6720833 -2.8394728 -0.3691443 1.3406101 0.040780243 0.072878994 2.4663277 4.593223 3.8668563 3.3621151 2.8684742 0.42886582 -2.381825 -5.225298 0.83401394 4.214152 -1.1388637 0.53404737 0.4772631 -0.9919147 1.5731294 1.7226703 -0.042627018 -0.96128047 -2.116499 3.0785189 -2.9674084 3.8713582 -0.95408887
87 -2.1705685 0.35461518 -1.4680525 -3.2599645 -2.150955 0.8231464 0.5126395 0.33721006 -2.2354748 -0.51266503 -1.517533 2.3581457 1.5591282 -1.9885206 1.5105749 3.06215 -3.936908 -0.07007692 2.034021 3.2206297 0.38093647 -1.3842554 0.35361362 -3.3208401 0.97668767 -0.072683446 -2.2123752 2.7997355 1.3666127 -0.22487177 1.3124483 1.1470237 0.23538013 0.8219289 -2.5189679 5.9001417 0.25448552 0.87870276 -2.2732642 -3.1374102 1.1195965 2.921184 -0.09087713 1.2316331 -1.5259928 3.3085608 -0.9258169 0.754446 -0.26675242 1.7404395 -2.301704 -0.39180574 -1.3130815 2.7799103 2.1261911 -3.5092914 1.9139575 0.982007 -3.0456693 -0.8566868 -0.6890322 -3.0802903 1.4334152 0.29423884
193 2.4049194 3.3520474 1.1450346 -1.4187949 2.451427 -1.3500044 0.29532227 0.40208644 2.9974184 -0.03972666 2.407201 -0.89785296 -1.0939107 2.7229087 -0.9443932 1.748532 2.1764767 -1.9304335 1.1090595 1.7965077 1.2568992 5.2019744 -0.54047036 -1.0104567 -1.3443843 2.0588217 1.585635 0.37757972 2.6915138 0.7783935 -2.5749085 -2.943039 -3.351292 1.5992181 0.6162834 -0.34107313 -3.99323 0.115964405 0.6560648 -3.680839 2.1755848 1.0277094 3.0784712 3.2879772 0.8089061 1.7693667 -0.8141645 -0.46860337 -4.100659 0.72841865 2.121381 1.3622258 -1.2646183 -0.026134023 1.9701786 2.182192 -0.6592455 -2.0934346 1.6243042 -2.0408192 0.10050147 0.29695338 2.9238956 1.8438857
138 0.76977324 2.193574 -0.12598093 1.6651105 0.5878174 6.268463 0.14621405 2.9465413 2.8668323 0.51372564 2.3087075 0.300192 -2.0885031 2.565284 0.17237563 1.0637926 4.9604316 -0.529906 -2.913673 -1.8875825 -2.358789 1.4703056 -0.9628649 2.0640082 -0.8712998 4.0617213 -0.39839593 0.85442376 0.05039869 0.30552593 0.4107623 -0.38810974 2.219704 1.1237972 2.6693022 1.5390857 0.23244059 -2.0505526 -0.25018755 1.1080736 -0.34752196 0.18290831 0.44170198 2.6869283 4.016808 -0.13114218 0.36355463 1.5201297 -3.0669463 1.6711897 0.019177573 0.5298845 -0.7389486 1.5887022 -0.583954 2.708412 0.95429343 1.2846823 -1.0634362 3.1060605 1.6273688 0.057729017 1.9501383 1.6722392
55 4.043869 1.5054754 2.3019953 -1.8066337 0.1895683 2.40651 0.49884984 -0.49643555 3.1201084 -0.868854 2.4566853 1.5880213 -2.7067444 2.0205567 0.5168842 1.8587029 -0.44642916 -0.69147456 4.1424975 -0.7650812 2.5712814 3.429156 0.5740997 2.9615123 0.7150153 2.0311308 1.1291385 0.277737 -2.5354733 -1.6897693 -1.4387075 -4.096245 -0.9612497 2.4692628 2.266399 -0.94491386 -2.8096254 1.3344157 -1.5737729 -1.3579105 2.4971344 2.4098835 3.580505 2.189595 -0.2516724 -0.1544448 -0.9177841 3.591809 -3.6666508 -0.83766174 0.52657837 0.769874 -0.7547519 0.33163682 1.0095283 -0.7133054 -0.60342455 -2.2468505 0.5348371 -3.6127055 -0.07302355 0.8866766 -0.64896524 0.6041801
38 0.21049705 2.3326 0.16795158 -0.5471869 -3.3335571 0.8674542 1.3666974 2.0590553 -1.9371674 0.23582967 1.1844125 5.146414 1.5381993 -2.4210346 -0.15217333 2.7734306 -2.1150923 1.9649634 0.7422393 1.5818862 0.58425516 0.6081732 -1.1893883 0.12218315 0.9032151 -1.5541452 -1.1955572 -1.3446479 -3.3423843 -1.6883539 -1.5364761 0.9694876 0.40821522 3.9868088 -2.5271883 4.344829 -3.361783 0.39939326 -0.79038095 0.043599717 1.4685715 0.3391512 0.8355017 -3.054866 -2.8682246 -2.2412448 -0.059473235 3.46721 0.5568416 -0.6002662 -1.2242863 1.4473503 -1.3012819 2.739973 1.2044752 2.1032736 1.0127304 2.1881804 1.6806985 -1.6500353 1.3940445 -1.2381518 -2.0770683 -3.1796672
48 -2.0777824 -3.0415652 -0.3466664 -0.7302444 -0.2810986 -0.4457371 2.5937078 1.6723148 -0.1865274 -0.71511143 -0.64229786 3.4116192 2.6052525 -3.0819666 0.43422598 1.1906099 -2.2698054 3.005129 0.66024536 0.34847546 4.75887 -3.9909146 0.5738353 1.402183 -3.330653 -0.084581114 2.1829398 1.8407305 0.34081128 1.2817715 -1.084934 -3.9355423 -0.04551696 0.6591146 -0.049812913 3.9000056 -2.750482 -1.7515631 -2.014379 -2.0000522 0.56957847 0.49599275 -2.1158402 -0.032344893 -1.2786881 0.16535673 0.2730589 0.28100714 -0.08714997 2.1262193 -3.0726402 -2.975465 -1.9412292 0.18375511 -1.6446688 -3.3561234 0.10566555 0.43393394 -2.7164192 -4.86585 -0.111861594 0.14280199 0.22806934 0.8534841
99 -0.43760556 0.57098126 -0.63982177 -2.436857 1.3405417 -1.4364232 0.7727215 2.8711019 -1.4578885 3.1552644 -1.1587719 -0.4188928 -2.5621872 -0.21751511 0.3237565 2.0538983 0.11923233 -1.5407825 3.0715735 2.7477539 1.1591105 2.221407 2.389417 -1.4265088 0.96687293 -1.6536788 -0.14677483 2.7830393 1.534463 0.8271262 0.7765249 0.42741156 0.25866556 -0.70289725 2.699119 2.1413865 -2.6295156 -2.2707624 1.3783357 -2.8835557 2.3232994 2.34655 3.5413198 3.6518004 0.92189956 3.3914135 -2.0032952 -0.9153178 -2.782024 0.20917398 1.8518614 -1.5398748 -0.17186227 -0.3647431 2.2341983 -2.096055 0.6088447 -0.26642737 -1.5271109 -4.963628 3.3155067 -0.31103265 3.3528235 -0.34104872
118 -0.81617165 -1.5109571 0.6630294 0.58328897 -3.250479 1.5653201 1.1700069 -1.7296329 3.1310596 -1.5660872 -0.28597254 -2.9893258 -1.6625664 -0.7025451 1.0522088 -1.1574327 -1.0827527 -5.2990236 -2.2918143 -1.3165034 0.27863583 -2.7041128 3.8491502 -0.9799814 1.2191069 2.0733576 -0.95283294 0.8096134 -1.8046252 1.9105241 -3.6887705 2.4772794 -0.021827444 2.262606 -1.3990861 -4.515131 2.0997918 -1.5688221 0.73883283 1.7571659 -1.3910053 -2.8575997 -0.10252665 0.88731164 1.2193283 -0.8217764 -0.7100364 -1.7359008 3.4674547 -1.5642576 1.6422774 1.6797447 -0.83542484 -0.32521728 -0.64411354 -2.096981 -0.3197953 1.4423928 3.0692363 2.2636335 2.046621 0.4446552 2.1586447 1.5979885
59 1.9751322 4.284205 1.168607 0.07783745 0.9701498 4.5066686 -0.7957816 -0.25959545 4.1265807 0.1253469 3.921812 -0.58665055 -1.6496787 3.9086738 -0.995 3.779507 2.1850865 0.72006476 2.6488736 -1.5807506 -0.30658445 4.727646 -0.42770025 1.7804898 0.11306924 3.857883 -0.598459 -0.27103063 -3.25314 0.9248505 -0.49282265 -2.2814093 -0.4743832 1.1042848 2.524284 0.9177124 -0.2842684 -0.5134633 -1.681378 0.22423805 -0.5026274 1.3656391 2.2070458 3.2107928 0.8580386 -0.98044175 -3.0878494 3.2095666 -0.41920808 -0.36254737 0.013655864 -2.4628644 0.046260122 4.258144 1.3270698 0.026497968 0.3115251 0.2656873 -0.57085055 -1.7789807 -1.4938297 0.01708177 -0.6485196 -2.2263238
186 0.559861 2.2161415 -1.9350809 -2.3267388 -0.6666212 -2.4555748 2.2882075 -2.9823728 1.8448315 -0.9854874 0.30999112 -0.7113364 -0.34647214 0.23992193 -2.058248 -0.7832355 1.480479 -2.2036617 -1.3953356 1.2550426 3.3150387 4.3243804 1.2388918 -1.45292 1.1215829 2.9308648 -0.13030232 -1.3215127 3.6274052 0.17031021 -1.6577585 -2.5777442 -4.123427 0.16204481 0.74871486 -3.4452343 -1.4371657 -0.5017353 2.8206542 1.8754135 -0.88733673 -3.088159 0.1343144 3.4308562 -2.4742548 -1.2206712 -0.7679625 -3.5782955 1.237502 0.4285404 4.002697 1.5658504 0.46826527 -3.7831159 0.037543852 -0.7224082 0.9651466 -0.47965983 1.9175537 0.7194687 0.550701 -0.51024234 1.0267787 2.7430818
4 -1.9222254 1.6386483 0.50555694 1.8980906 -0.12287945 -2.3636906 -0.5857925 2.5240448 -4.312981 0.58904105 1.3825856 4.997385 1.1571064 -2.5895126 -0.20663954 2.9316218 -2.0843692 -0.9604072 -0.017095737 -1.3052839 -1.6936754 -0.5435568 0.9946575 -0.7601882 -0.1140424 -0.9330334 3.523119 -3.2753065 -2.094524 -3.7969034 -0.85771275 2.0282974 -0.6610884 2.133729 -2.5700343 2.9864144 -3.644559 2.2332532 -0.764334 1.2607169 0.536411 -0.10324801 -1.4353913 -2.0128772 -2.6490495 -0.6448734 0.6889697 3.8854074 1.9864272 -1.8613988 1.4739093 0.3595975 1.4490957 0.14073782 0.3814702 2.5579221 0.7228716 1.7814505 2.066967 -0.38098243 -0.19636832 2.667832 -0.4088569 -2.306518
132 -0.8783355 -1.1610476 1.2840054 2.6389508 1.2951784 5.514165 0.17533879 0.075570725 3.2506938 2.6404452 -0.09323357 -0.08884953 -1.4882582 1.5286841 -0.330221 -1.17565 2.409217 -4.3026967 -1.1751294 -1.901173 -1.7648326 -2.7069771 -1.6225449 4.0468354 1.2992736 3.9860907 -2.0911345 -0.48433384 0.86763084 -0.57062805 -1.3974749 -0.18836957 1.6274698 -1.4587072 0.14936258 1.9853585 0.2505222 -2.7487643 -1.009651 0.6849443 -1.238049 -2.3976438 -0.80760473 2.5891175 1.3402265 -2.4687624 -2.9914956 1.8571115 1.3727322 -0.9030446 0.5178992 0.5145794 1.5841287 2.571075 0.6396493 -0.26462483 -2.0795734 0.12326129 0.04148661 2.7737463 -0.3311385 -0.25579304 -0.74624735 1.5086975
16 2.5229313 0.7908738 -0.07560198 -0.02187824 -0.65938056 -0.21924914 -2.8826108 -2.706099 -1.8100386 1.1745312 -1.1243303 0.45765603 1.7897708 -0.5312923 -1.9195317 -0.82287055 1.1931596 2.9214838 1.1231059 0.24345137 -2.5159318 -2.5785503 0.3362002 -1.2163131 -1.0894693 -1.1074352 1.7791148 -1.8213453 0.12903744 -1.036412 3.3631418 -1.1043254 -1.2914318 -0.28959033 -5.942825 -2.128612 1.5617875 -3.733255 2.161588 -2.9772146 -0.7475529 0.9203453 -1.0156802 -2.3792524 0.32201004 1.8303636 3.105558 1.6588117 3.2987566 -2.1719627 -0.06663543 -3.2780287 0.17020126 0.25066617 -1.57488 1.5549891 -1.1190553 0.4200459 -1.3668684 -0.6320481 -0.11626828 0.95229864 -2.997486 -0.22474234
173 -0.2343774 -1.7199595 -1.0170524 0.5166937 -0.08676044 -2.3895593 -1.5167947 -0.9095187 0.5436267 -2.631612 3.6410646 -3.206377 -0.38674915 1.8705777 1.1044987 0.5625662 1.0212469 0.7328487 0.7706306 -0.837013 2.4611619 1.4256592 0.109743476 -0.03040425 2.370099 -4.2098556 -0.18399586 -0.5345275 0.5766537 1.3201799 0.8901882 2.067808 4.475687 -1.7052759 0.011294213 0.5116217 1.3870813 3.9510756 2.9354582 1.4091574 0.46077585 -3.0371218 -2.6133795 -2.1953943 -0.24907646 1.9481263 -0.743734 -4.1317177 -1.3891841 3.639839 -1.3330812 0.19712271 -0.17788385 -2.1190276 1.0595402 0.60952854 -2.2966182 -1.3674891 1.8535395 1.0871114 -1.3527716 0.33611342 -2.8080626 0.8469619
205 0.6312757 -4.6070423 -3.1454031 0.2347905 0.7467046 -2.232196 0.96659625 -1.863094 -0.4407348 -0.37123913 3.1328888 -3.5142024 -0.33570716 2.3094811 -0.3765073 0.7036487 2.6611483 -0.77167994 0.24063885 1.810547 2.0434415 1.1356877 0.9285996 -1.7201594 0.22217447 -2.122435 0.16172463 1.8838868 0.15529123 2.7745066 -2.7913997 -0.13876183 -1.1004413 0.26142815 0.35063723 -1.199921 2.8161273 1.5803567 5.484101 2.9079647 -2.2097878 -2.5301511 0.5288678 -2.1067967 -2.5195684 -1.8868891 1.0950646 -0.6338189 -2.3851914 2.5958774 -0.45404947 1.2842793 1.9365661 -1.5814726 1.7223793 -1.8382213 -0.8296582 0.06863983 2.600002 3.1560333 0.91796607 -1.3254689 -1.5015416 0.83137107
204 0.5877829 -4.554476 -3.139181 0.3190921 0.19043018 -3.373794 1.2651083 -4.2837405 1.3804028 -0.5259994 1.4286243 -1.340342 -0.9060328 2.2266865 -1.4408604 1.422314 2.2759867 -1.2956434 0.07305682 -0.6282035 3.4086032 1.8592142 0.86383885 -1.3012944 1.8458678 -0.48191124 -0.4197242 1.328274 2.7071824 0.1389682 -1.8480648 0.10532855 -3.7301834 0.295212 0.3657411 0.4321636 0.75538045 1.8347148 3.9019618 0.4671011 -3.6776102 -0.98557216 3.2351055 -2.1184328 -2.438152 -2.4726725 0.9042005 -1.6259173 0.10094619 1.7332815 2.2127266 1.6611764 2.7556872 -2.2102377 -0.3391962 -2.5060642 1.1038327 -0.66696304 3.3496056 2.4276714 1.7859296 -0.2635313 -1.0046587 1.3518578
112 -0.1932556 3.4571369 -0.23378 2.2563763 2.776119 2.9093647 -1.2456796 2.7315023 3.6626778 -3.7848036 -1.6320999 -1.6914377 -2.287031 0.40120035 -0.63146234 1.9032284 4.815222 -2.191773 -0.26574314 -0.7433632 -1.6878434 -0.21035382 -0.3817682 -1.0295129 1.3192235 0.612433 0.34633386 3.1166813 -2.1352322 -0.22547777 0.5485512 0.48512465 1.029735 -0.4477315 4.4551344 0.9335102 -0.16855566 -2.9027474 0.6254697 1.3234591 -1.639422 0.6292854 1.9078263 0.98057634 4.0792756 -1.266247 0.47064927 0.74312973 0.008284512 3.659601 0.62036055 -1.0317849 -0.23238575 -0.36908722 -2.4515262 3.2301004 1.571769 0.94318664 -0.00011143081 1.9031135 0.6258323 -0.68669766 2.388835 1.1243632
176 1.8571001 -2.7760363 0.53205246 1.368948 -0.38665688 -0.3901958 1.7494183 0.3726228 -0.6912482 -2.119114 2.9645348 -2.4584975 0.62352914 3.4153292 2.613532 -2.0072746 -0.82305205 -1.3105819 -2.249498 -1.7241094 0.15380941 0.6435559 0.5707599 1.3515623 1.4648056 -1.7931949 -0.69604033 1.3132894 0.06086237 2.0071068 1.119719 2.0488176 3.786132 -0.5409543 -1.8420044 -1.4448586 1.8451583 5.973778 3.0983913 -0.63029015 -1.5936508 -2.802786 -0.6615818 -1.5073884 0.1913047 1.786907 -2.1177487 -3.0418658 1.5497506 2.2059267 -2.2502089 0.9285161 0.21038872 -4.010526 -0.1401587 0.9607178 -0.6950071 -2.4516628 1.8760852 -0.19296654 -1.3401014 1.618396 -0.57323474 -2.1759865
46 -0.7037108 1.7279193 -2.132346 -1.879472 -1.3429267 -0.31074345 3.5190017 2.8171823 -1.8935267 -0.1860424 -0.22189264 1.9241596 -0.23088174 -2.252306 3.9906566 0.64532894 -1.3747767 1.2442162 2.218658 0.1328013 0.93373746 -3.4341023 0.51067144 -3.014647 -1.9144744 -2.01126 1.1837348 0.78830826 0.9031529 0.44719952 2.147432 -2.1878352 -2.6105232 -0.28015232 -1.0768726 2.1088731 -0.9403454 0.26751038 -3.1955838 -0.503532 1.901971 1.7678255 -3.9768896 0.90360576 -0.7584003 1.7850413 0.18620877 1.020052 0.2829621 2.3160787 -0.116190515 -1.446143 -1.3078431 1.0175889 -0.87881935 -5.5392227 1.848085 -1.3612093 -0.7694141 1.735484 -0.8466967 -1.0211785 0.59815574 -1.4680785
135 0.070401445 1.4537383 0.62881976 0.7205975 3.3487797 5.4117064 -0.52343214 2.379079 2.7323027 2.0707655 1.8785486 -0.70027745 -1.738993 1.4277928 0.38093916 1.2461953 4.171806 -0.6272434 -2.1303492 -2.8789144 -3.2402666 0.12532067 -0.6838859 2.065587 -0.4627835 3.4341266 -1.4953964 0.9950653 -0.69521296 0.7601332 -2.1117764 -0.7691817 0.92296296 -0.65037906 2.850645 1.819735 1.4286182 -2.1945913 -2.1025991 0.8195226 -1.3683993 -0.526743 -0.3518804 1.2299562 1.2589462 -1.662468 -2.1870456 0.5705549 1.3731698 -0.094144 -1.1911384 -1.9037354 1.0946873 1.2780497 -0.3870016 2.546179 -0.87040216 0.042753544 -0.6572195 3.3334315 0.40460172 -2.5931072 -0.025452571 2.2074184
86 1.4660274 2.4579756 0.40533215 -2.3756049 -3.9572198 0.52153194 -1.4045563 0.7439583 -4.312924 -0.9250154 -4.543947 0.14947698 -1.0798911 -1.1439353 2.6806 0.9351491 -1.8129768 1.3730173 1.4992694 1.910516 -0.14967193 -1.2566923 1.8150854 -2.7606812 -0.85787994 0.972755 -2.4032354 1.5075511 -0.09736704 -0.15206042 1.611294 0.56566864 -2.3736286 0.94144005 -1.3714781 5.1714563 -1.2374845 1.4635922 -3.455035 -0.44118732 1.5386205 0.8123666 -1.4966576 0.8831181 -4.0542254 2.4551542 0.9369042 -0.26514125 0.11582761 2.524645 -1.3999019 1.755591 -1.996074 2.331546 3.1189218 -0.9190685 -0.25282782 1.0235461 -1.7983779 1.004048 -1.8596549 -2.7162426 -0.5029605 -2.2393687
42 -0.94045025 -0.55354214 -1.0053551 -1.4615802 -3.7222166 -1.7785795 3.1989903 0.45050064 1.8906645 -1.6137087 0.878357 4.003175 1.0045099 -2.0430303 1.4182616 -0.58308834 -1.479803 1.5262202 -0.40314376 0.639594 2.8850422 -2.8191233 0.9346018 -2.0184872 -3.8476331 -2.8635607 2.152739 -0.34584624 0.8858376 -0.25705802 2.2467496 -2.012851 -0.8442486 0.60382754 -2.9463573 3.4056098 -0.89769447 -0.72712123 -4.462284 -2.1496267 1.6912469 0.16223091 -3.1813135 1.2008547 -0.13575846 1.210961 0.3376169 1.4009832 0.40751532 3.9975572 -3.708976 -1.3132664 1.0745146 1.5562185 -1.9580989 -3.059153 1.5246255 0.36551514 -1.0216728 0.050464813 0.8387772 -0.78767776 0.39751363 -1.9699289
110 0.5217701 2.6357431 0.77239954 2.7325053 4.678641 3.0433383 0.45908722 4.5676503 2.5245488 2.5779502 -1.1853545 -0.9181634 -1.1055845 0.22833918 -0.82168233 -1.6908053 2.0395527 -0.60812926 -0.36755314 -0.14891115 -1.5915405 1.7608843 0.26187918 1.8783629 2.247793 0.9530359 0.25185105 2.433559 -1.1394488 -0.8004141 1.5589806 2.5078886 2.685678 2.3005908 3.6105227 0.044528704 2.702769 -1.168506 -1.1187738 -1.0504119 -2.8632362 1.135228 3.3796294 2.4352086 2.2754214 -0.07850451 2.3011856 -1.4936299 -1.1625907 4.5735097 0.62087226 -2.7982414 -0.71216834 2.056622 0.18432793 1.1273019 2.964947 1.9894303 -0.79518515 2.5768282 1.0973111 1.2258278 2.5076754 1.5540475
13 2.070471 -1.1142368 -0.9009548 2.1524534 1.0680135 -0.6197909 -2.713818 -0.46325085 -0.30014396 0.9856439 -1.3619953 1.9796888 -0.85070807 -1.3351231 -4.686994 0.37156752 -0.46273956 2.0095148 1.1667101 -0.99763024 0.26172024 -1.0225937 0.44170904 -0.697254 -0.57993025 -0.2357884 0.8473131 -0.85053396 0.33543345 -0.63172746 3.079121 -1.5762719 -0.110799104 1.4209971 -4.100936 -3.430906 -0.6392317 -0.28277078 1.1191138 -2.2775877 -1.7278017 1.6313846 -4.168042 -2.52023 0.57055736 1.1985216 3.046147 0.2162785 0.908456 -2.5279891 -2.368374 -1.3973428 -1.2214799 0.48604786 -2.8038871 0.81085145 -2.5833259 -0.33248603 -1.5506861 -0.90508664 2.6234825 -0.36946058 -1.5262101 -0.025374053
191 3.6422107 0.8091092 -1.1076486 -1.9048827 -0.2528354 -1.8438526 1.1092131 -0.8982861 1.3388808 -0.45823833 1.1617348 0.06558062 2.3586814 0.24524276 -2.5955398 -0.17341569 2.2471924 -1.3108581 2.3642945 0.6427174 3.4124825 2.6017747 1.233365 0.42998946 1.1490208 1.1555609 1.5379181 -1.2802808 3.7340977 0.83062434 -1.1858436 -3.708702 -2.3756602 -0.76168114 3.3488219 -1.5271343 -4.38975 -0.044219833 2.3750625 -0.68155766 1.7613163 -0.86950934 3.5754924 3.5410275 -1.0387014 1.9555571 -3.2223504 -0.5056313 -2.5994482 0.9058299 2.4128306 -0.10366587 -1.382019 -0.60009426 -0.6547829 -1.5912745 1.1211497 0.77193195 2.0295827 -1.9058313 0.9878722 -0.95044196 3.8793676 2.343735
208 1.4658777 -2.5594373 -2.7200665 -0.16972966 -0.31378004 -3.336291 -0.17569673 -0.19385268 -1.0878509 -2.8365417 2.6405606 -3.2227437 0.38365594 1.2528526 2.3830628 1.8620458 2.845113 -0.6906377 -0.77064264 -2.1876929 2.991192 1.2035757 -3.301015 1.2134783 0.11692015 -2.8388681 0.08534119 0.7444206 -0.062752075 1.7997438 1.6108534 2.8357275 0.81281346 -0.7776038 0.570887 -1.1196094 2.3707967 2.8373728 5.076763 0.09941568 1.3413581 -1.6026355 -0.08882767 -1.8329858 -1.9924529 0.36377817 -2.2622375 -2.193043 -0.113748685 0.96781886 -1.6377339 2.3313901 0.20257564 -1.9924486 2.5599513 -1.6786522 -0.9963533 -0.8563425 2.5592997 2.0851493 0.0912545 -0.36099732 -3.771393 0.7942986
102 -1.0440295 2.918107 -1.8846104 0.5990359 2.5394962 0.8138647 -0.28384718 2.524676 -1.9235398 3.4249732 -1.0223751 0.5329084 -1.3718467 0.31678048 1.077427 0.14615333 -0.42466477 -0.84992707 1.6700251 2.6662858 0.3975618 4.6172147 -1.04194 -1.572995 1.7670509 -1.9122674 0.9205038 3.7404668 -1.061583 -0.078574635 0.9787235 0.7535763 1.2300228 0.20979032 2.185038 -0.1903824 0.53338665 -2.5143502 0.84610873 -2.4749892 0.79573756 2.2463605 2.24609 2.4634922 0.5174156 3.5239284 -1.8905132 -1.349698 -1.7900624 1.4923424 1.9990786 -1.9044374 1.1620178 0.36962605 2.2027283 -2.7552323 0.6199532 2.0083516 -2.8335865 -2.203421 1.9860772 0.8222698 3.489769 -0.39431834
67 1.5112796 1.9024289 3.0997648 -2.2138207 -2.026271 0.890349 1.9309436 -0.59795636 -3.4954596 -1.2679307 -1.6749654 3.0511076 3.758902 -2.0312645 -0.30432937 2.1449153 -1.7873855 3.2215188 0.05634449 -0.66627055 1.1203191 -4.8398004 -1.6953756 -1.6512574 -1.7348111 -2.0479593 1.0378563 -0.34545812 0.7483065 -0.38581553 0.46772304 -0.9192171 -1.4579684 1.1142251 -4.254962 3.3658202 0.06535933 1.4823651 -1.7421718 -2.4989126 2.9657125 0.6847729 -1.7716477 -2.7001057 -1.7201498 -2.8631792 0.852178 0.7573615 0.7987481 2.245694 -0.533918 -4.3505964 2.6719372 0.586987 -0.4313906 -1.0860772 0.47472113 2.5106723 -1.0409449 0.67400765 1.7754188 0.6450663 0.25175238 -0.6261087
56 1.488124 0.4479165 3.346668 0.28639752 -0.9428359 4.834712 0.7340251 -0.1256443 4.6223497 1.6783502 4.259172 1.2077277 -2.6594079 3.91077 1.1132398 2.951048 0.4237865 1.6945409 2.932881 -0.3202585 -1.3014264 1.9066986 -1.6137431 2.1353414 0.0074256165 4.1093473 -0.2507008 0.6455704 -3.3952582 -1.96468 -1.629518 -2.5828218 -0.069820605 2.3704903 0.01822557 1.3969442 -2.4912565 1.1183443 -1.2003579 -0.2311408 1.4846636 1.5297205 -0.48403907 2.7136414 0.2877147 -1.4280226 -0.99584234 2.346222 -2.6739664 0.26016524 0.39490783 -0.31889504 -0.43089366 1.6495845 1.3425434 -0.81802315 -0.6233827 -0.5554921 -0.15555704 -2.2785134 -0.39604765 2.5869842 -2.914612 1.2736758
183 -0.03200794 -2.987964 0.25132355 0.4122485 0.28637594 -0.48179454 1.8019223 -3.361708 1.4056875 -2.7235992 0.6467252 -1.3638687 0.21194318 -0.3962911 0.8331885 -0.08136519 1.188707 -4.2118034 -2.1917665 -1.1089917 5.092077 -0.41573006 1.2296256 -1.4496228 0.76292014 1.4676828 -2.4264522 2.4934587 0.32064748 -0.3604291 -2.3366125 0.8529964 -0.99323934 1.4142952 2.3410559 -2.0976162 3.5554883 1.3630037 5.700835 2.0458148 -2.1401653 -1.8405508 0.3066617 -1.6505514 -1.8737501 1.1057315 1.1046138 -0.6529185 2.5719247 -1.4771249 -0.9522445 1.3390528 2.1374962 -2.418648 1.0723078 -1.5705903 -0.24727054 -1.4463625 1.8608593 3.4773765 1.8774133 1.3778187 0.69344467 1.1607589
165 -2.2784305 0.1957897 -1.0010889 0.38332435 1.5094064 -0.21360229 0.7985332 -3.1682668 0.89286274 -0.74194247 -1.8188646 2.2834563 -0.893981 -2.1622906 -2.2588878 -0.5162187 0.51557004 -1.192304 -2.1641293 0.9980328 -1.2502322 0.84175146 1.7590014 3.2234206 -0.10626173 -0.69726723 -4.794405 -2.783201 3.4862857 -1.0711685 -2.34933 -0.69162095 -1.1894363 -0.0071544955 -0.7262978 -1.3274431 2.9139025 -1.2606298 -1.3790114 2.595154 -0.066210136 0.38499683 -2.2213447 2.216583 0.31480542 -3.755298 -4.8904996 -3.663365 -2.0651915 -0.95909184 3.342154 0.045620978 1.5728574 -3.862614 -0.49649546 -0.08107375 2.390846 -2.8159337 -0.962087 0.2863009 -1.3118992 -0.5963132 -3.2478824 1.644277
157 0.6666608 -0.9815134 2.9233415 -0.4694223 2.4146988 0.23073228 0.61424375 0.12445211 3.9510243 -2.1494799 -2.4049945 0.56298673 -1.9694885 -0.7451135 4.6360984 -0.9546477 -1.1833162 -4.718724 -1.9683961 0.6068314 -1.3162227 -1.1561852 0.9256769 -1.7121917 0.091751665 1.7477269 -3.0180273 0.836429 -0.4711385 -0.16981348 -1.2340783 1.9509375 4.07232 -1.6917297 2.0321817 -4.705237 0.70994204 -0.9196904 3.5415118 3.7993884 -1.4054942 -0.5402872 0.75414896 -3.11557 0.598061 -0.81092006 0.7862215 0.1699245 1.8946487 0.53204066 -3.1253722 1.564312 2.2179093 -0.3019102 -2.994994 -0.55337954 -0.33448744 -0.7375687 1.4031955 2.7917328 -0.30096427 1.2103839 3.7081163 -0.7413791
88 -0.7495766 -3.383453 -1.3281642 -0.90416837 -2.4994946 -0.09290999 1.9812121 1.4222286 -3.14124 0.945831 -1.629329 -0.98748446 0.09605012 -3.8721423 -0.24840902 1.7418408 -2.6082823 0.6801218 3.5652344 2.03944 -0.4930783 -0.27361226 1.2804021 -4.250263 -0.6751865 -0.1406561 1.6370338 2.3161552 1.5811582 1.2066499 1.65128 0.2751508 0.6343845 0.10435353 1.078622 5.613725 -1.3738458 -1.6087834 -3.1515532 -1.3242311 0.22359459 -0.596722 -1.8231606 1.2941076 -1.179447 1.1465673 -2.4629617 0.11140189 -1.8451605 1.626589 -1.2652397 -0.6122435 -0.94650406 1.2512329 1.8062936 -3.943793 1.7610208 -2.1676455 -2.0664635 -3.4146714 -0.9813439 -0.33509886 3.6780224 0.11076211
100 0.06733418 1.7807506 0.0033082839 -0.15730461 0.2805997 2.7161114 1.3067967 2.0386734 -1.4966906 4.840138 -2.8463237 1.85457 -2.7774162 0.009066676 1.8327006 2.2615645 -1.384842 1.8239644 1.5780133 3.2362187 2.1675413 1.987272 -1.1863307 -3.0220213 1.7812871 -0.872368 0.4963598 3.838688 -4.204337 0.3938236 3.1868074 1.8165288 -1.7252411 1.3600328 -0.69265246 2.5446267 -1.1140537 -0.8135394 -2.1085713 -0.20509012 1.4992758 -0.22456242 1.77569 1.6762401 -1.848059 3.1565878 -2.4048882 -2.229337 -3.9711285 0.25719598 3.390892 -0.040406592 1.0279462 2.38379 1.961815 -1.3031048 1.1955405 -0.027238848 -2.7228339 -2.9914901 0.99114954 0.22375093 0.884068 -2.4989061
35 -1.8119272 0.9104703 0.4136639 1.7581699 -0.47723737 -3.3522868 0.14910525 -0.10800647 -4.9651666 2.8337488 1.9003346 3.0517344 0.37691513 -2.9585 -1.6828791 2.2229018 -1.9807584 0.5893681 -0.279374 0.48466384 -1.3118601 1.5032048 -0.7713772 1.2278206 1.6570287 0.37302533 2.131297 -2.3213093 -3.876378 -0.2634211 -2.437873 -0.21730544 1.7908099 -0.36642414 -1.0712116 2.2574928 -2.0935292 1.6108849 -1.8223004 2.688869 1.8017956 -1.2797244 2.2125926 -0.27224314 0.15159076 0.9488685 2.7977011 2.539086 3.8343458 -2.8561974 0.41974607 1.976684 1.0597609 0.70305336 0.5384221 0.98195535 2.4374993 -0.53767055 1.6175407 -0.03696365 -0.092049316 1.6885912 -1.192116 -0.54724354
185 -0.17119928 -0.36280566 -2.4599571 -1.0738366 -1.3317757 -0.54269356 1.8902 -2.0893347 -0.055099852 -1.3502309 0.36477885 -1.2097858 1.375464 1.6175708 -2.9516428 -1.8052844 0.72727937 -2.7546647 -0.5927235 1.0213311 2.455358 3.4989212 2.2925715 -2.9882588 0.25280717 1.1984395 -2.1650727 -3.6824532 2.7926815 2.111105 -2.73279 -0.5592905 -3.914324 1.7952231 2.8397899 -3.553597 0.07444182 -1.9890599 3.8805757 2.4266264 -1.1598775 -2.3707914 0.033273 2.1519094 -2.2535138 -2.2447836 -0.4189299 -2.7240388 0.98690736 0.3025029 2.3019965 0.7249137 1.2788007 -2.853077 -0.7931711 -0.7655369 1.2829504 -0.63085926 0.9702412 1.7051058 1.2300619 -1.631387 -1.6695241 2.3773947
179 2.0163057 -0.14923958 1.3396622 -0.6679995 -0.9160414 0.3228591 2.692129 0.9965775 -1.4480308 -2.651236 0.4332911 -0.6202264 0.5460734 1.9003732 2.2233467 -0.9987612 0.17685702 -1.768842 -2.9922476 -1.0189579 0.055801205 0.84573567 0.7001776 1.1083679 -1.246332 -2.3275685 -2.277812 2.0596197 -0.19327337 2.9562294 0.57690716 1.7200335 4.81853 -3.3747983 -0.16868493 -2.7799368 4.0118375 3.7634356 2.961605 -0.41642654 -1.3738568 -0.039530188 -0.82170844 -1.6536101 -0.26746303 -0.16653968 -1.5725445 -1.5579563 2.9885886 -0.20531233 -2.8024662 4.0958343 -1.2028822 -4.3710747 -1.425617 -0.23138368 -1.3132625 -2.0941331 3.6419227 -1.1278172 0.2964337 2.2522786 0.9358549 -1.9689033
131 -0.4102771 -1.1295087 0.9353997 2.6401248 1.6802851 4.5881104 -1.4672742 1.4170146 1.332055 1.3283447 1.3221486 0.33794546 -1.496459 1.9345124 0.7351245 -0.8314472 2.2187123 -2.773286 -2.4454463 -1.1865757 -2.9519126 -0.4716315 -1.0918854 4.114544 0.289603 1.9013939 -0.99148333 -1.2964251 0.6090377 -1.9269619 -0.9174692 -0.9979203 -0.6446036 -2.184454 0.28822342 1.7243755 -0.3671746 -1.8652672 -1.5426365 0.39819047 -1.5712285 -0.92489946 -0.18305495 2.7968142 1.8395073 -2.3752778 -4.6772046 0.8601122 0.092032604 0.37885806 0.3300878 -0.8945427 1.2965325 2.4155595 0.050725933 -0.37780595 -2.5015583 -1.5524424 -2.149194 3.2799647 -0.3499363 -0.625247 -2.0461683 -0.31008333
130 -0.22103544 -0.03185606 1.5256921 2.6085763 1.2666602 4.4340553 -1.7433304 1.8412575 1.3058354 2.2182474 0.45147374 0.6720249 -1.1190825 0.89310735 1.1708792 -0.9066713 2.0408306 -1.7988391 -0.9502757 -2.8847291 -2.5149548 0.6370864 -1.4830362 4.454463 0.19926259 2.2779088 -2.2913222 -1.2824064 0.5371628 -0.66297543 -3.2381163 -1.7681301 -0.7947119 -2.5543163 0.45077473 2.8497622 0.3705467 -0.96708286 -1.9201928 -0.15333518 -1.1069955 -0.17638166 -0.57427585 2.1021993 1.2057065 -2.0042171 -3.8213086 -0.3648458 0.51108205 -1.3769535 1.3032823 -1.6162636 2.214113 1.2710004 0.4507699 -0.59308255 -3.0239916 -2.2776897 -1.5665486 2.8541205 0.6374276 -1.2273556 -2.0004196 1.4359657
74 0.28364563 2.3213387 2.884177 -2.0323575 -3.3031638 -0.16479959 -0.73181266 -3.6217606 -2.9168756 0.8464157 -2.3074586 -2.23416 0.8586999 -0.5313293 0.5437673 -1.4659406 0.5546081 4.0499935 -0.5209123 0.14301008 0.27894515 -3.1365206 -0.98619705 -0.8274389 0.089665346 -1.2519377 1.2673302 -1.5521836 1.5186942 -0.1875896 -0.30315185 0.67800903 -2.0869653 -0.26429015 -0.7525425 0.69263506 2.6301486 -1.8673891 0.5854703 -4.248217 1.4655715 0.33237597 0.3516454 -0.90892494 1.3047884 -0.59459853 0.02642888 1.8541073 0.54776865 0.10812554 -1.776209 -0.6652212 2.2272332 0.37481904 -1.6102874 0.89972883 -0.401485 0.8508948 -1.1351172 1.1266806 -0.49419022 2.586658 -0.76674277 -0.41207743
142 -0.9826178 -0.3091611 1.3403848 -0.3243584 0.3938811 3.2275393 -1.7453836 1.8308239 5.1972914 0.53920203 2.2500417 -0.43451056 -2.010646 0.5016221 1.5408229 -1.0272901 0.5051417 -1.6605935 -4.3763404 -1.3209473 -2.834776 -3.433151 0.6031449 -1.0336255 -1.2971271 1.8885431 -2.3526802 1.3423257 -0.0071428227 2.1291375 -1.10748 1.2842566 1.8975044 -1.2678791 0.8220276 -1.4533174 -0.63046616 -1.7988135 -0.28920394 3.644422 -0.6135269 -1.4021388 1.6474366 2.3568807 1.5411978 -2.9642875 -1.4028462 -0.6322026 2.1323667 -2.342602 0.04596989 -0.6047437 0.44876605 -0.22393091 1.4707414 1.1808058 -4.0561056 0.63261503 1.1640033 5.6249857 1.2685744 -0.65528154 2.4898117 1.9395741
72 1.5747489 1.1973221 4.997588 -3.3123705 -1.7262285 0.88602984 0.011039325 -2.6611047 -2.1229625 0.0726463 -2.3156497 -1.6097565 2.6405127 -0.6958114 0.5383827 -0.75354695 -0.3853248 4.560065 -0.4510828 -0.51231694 -0.3501887 -3.260792 -0.50940883 -1.1774837 -1.122773 -1.1315289 2.5312092 -0.97529817 2.2110615 -0.4464142 0.12878223 1.422199 -1.7384906 0.25885838 -1.3161714 0.1735806 1.8111238 -0.37505838 -0.77074057 -3.2740793 1.4247278 -0.20642509 -0.1617888 -1.6079994 0.18992777 -0.6751857 1.1071804 1.0706737 0.35444513 0.4311359 -0.7003862 -1.2498237 3.482246 0.19696032 -0.27036822 0.5740836 -0.20612185 1.0866594 -2.1801457 1.829209 0.5847383 0.022700828 -0.6631373 -0.89121044
116 -0.17807129 -1.8250468 0.25888404 -0.81568766 1.3868638 3.0519528 -0.77727807 0.049030725 3.4428158 -2.7807448 -1.700795 -0.6977985 -2.716638 1.7021955 0.2832859 -1.3340287 -0.7679152 -2.1665096 -3.4326985 -1.4847852 -1.0769454 -3.0669544 -0.67534703 -0.90295005 2.0344524 3.6059678 -0.701881 1.8209627 -3.2497666 0.7059009 -2.5605204 0.12719506 3.1779308 -0.9138759 2.1719058 -2.939613 0.5729896 -1.9368508 2.146785 1.5410681 0.78648853 -2.4831572 -0.79122317 -0.35976192 1.9810877 -1.0844623 0.9205025 0.304346 1.9919347 -0.15770693 -0.74979335 -0.8320239 0.2560381 -0.41929132 -0.16293718 0.70687485 0.086785264 1.6889888 1.3148594 4.841532 0.7188804 -0.41204032 3.6384041 -1.7776023
155 -1.2385764 -2.5762362 -1.2350513 -1.0063807 0.3179084 2.3922222 -0.7767283 1.3039882 3.2568107 -4.410419 -3.2781286 -0.91142315 -3.8870606 -0.031871457 1.705982 -3.195468 -0.0059266584 -2.4748795 -2.5440993 1.7829529 -1.8948267 -0.8430636 -2.1268706 -0.4830505 0.6230294 3.1420112 -0.10339514 1.9517677 -4.3150935 -0.45406076 -0.04519489 -1.0472835 2.003179 -1.8155246 2.3760068 -0.6988823 -0.27634442 1.3085183 3.9993343 1.5949825 1.5965998 1.9280342 1.8216405 -3.8216233 0.6931501 -2.0179925 0.104856014 1.0598403 3.299106 2.314331 0.46192804 -1.8414264 0.7096929 0.7727399 -4.694673 2.990887 1.5294747 0.7546198 0.9318355 1.0476859 -1.2060854 -1.8922622 3.7125416 0.027913617
36 0.17404054 1.22351 -0.6171139 -1.2761754 -1.3662047 -0.7451659 -2.0036223 1.6933097 -2.3559618 3.4370387 2.1941967 3.7025337 0.5530763 -0.6604202 -0.48123792 2.3220084 -1.7326483 0.65871584 1.0718802 2.6075785 -1.2500893 1.5556887 -1.8383527 0.17305584 5.637477 -3.5970607 1.5135746 -1.8358958 -2.7723927 -0.20374586 -2.721544 0.08440706 0.42869273 0.8877514 1.3199205 1.209725 -1.4590999 1.2216802 -3.66382 2.4228735 1.697998 -0.09958234 0.6409195 -1.3959911 -0.011749579 -0.4511605 3.48211 2.1536045 2.9652271 -2.6587045 0.16347934 1.781612 -0.3961177 1.9072868 1.6627609 1.4254451 1.3551694 1.6297437 1.8914654 -1.7245079 -1.8733788 -0.9581903 -1.2094204 -1.2667894
25 0.9863607 0.42381603 -1.4324995 2.1037905 -0.94981116 -1.6607317 -3.4330275 0.8015545 -2.327949 3.33701 2.563554 1.4400494 3.6873887 -2.8640206 -0.8997089 0.06472685 -0.87440896 1.3346726 0.94104916 0.3512692 -3.7012634 0.8275307 -0.8458936 0.77209777 1.0996245 -0.9713277 2.611285 0.34076574 -1.5152183 -3.335954 -0.038839687 -0.8444492 0.5881173 -1.06437 -0.68758345 -1.3545523 0.7544692 -2.1468933 0.433658 -0.17841247 1.2239484 -0.94806874 -1.2518197 -1.9141816 -0.36521232 0.9416335 5.517462 1.7299024 2.7453225 -3.6280603 2.7635887 0.77872074 0.24565779 0.8694067 -0.54384524 2.2389364 1.1095105 -0.68603635 3.450144 -1.2817587 -1.1949525 -1.9502169 -2.3592238 -0.6558792
133 -0.30388275 -0.028541302 -0.013303283 1.4909328 2.2860603 6.1435285 0.7471241 0.6322596 2.2150106 2.0466774 2.9487557 -0.6939836 -1.709392 1.6070377 0.058048226 -0.5245639 2.321623 -1.5159026 -2.2943661 -1.9392434 -1.8783569 -0.47148472 -1.3204417 3.7581086 0.09978414 2.1478908 -2.8204384 -1.0792158 0.71019715 0.32934195 -0.4771711 -0.98105514 1.0429236 -1.080994 0.7826452 2.5236986 -0.11070426 -2.6017632 -1.8298835 2.0135565 -0.94369847 0.72463465 -0.54528105 1.2927716 1.3136028 -2.3127038 -3.0297842 2.8928795 0.059989676 -0.17838518 0.42109805 -0.56251705 1.8455901 3.0359836 -0.06423275 0.6143947 -3.0436747 -0.30176052 -1.2864025 2.416581 -1.3522445 -1.4476907 0.4895935 1.0693796
123 -1.1663821 -0.25950018 -1.0646482 0.75690794 0.8272574 0.5062106 -1.1671797 -0.94196165 0.94442207 1.0143135 -1.0260315 2.2238824 0.22318362 0.04997513 -0.794649 -2.218884 -0.39942122 -2.6500812 -3.1920993 -0.46280283 -1.4867151 0.34059465 0.69836664 4.1954517 1.8104693 2.6944664 -3.3889654 -3.4267182 3.0114582 0.045885254 -2.3526344 -1.3889054 -3.0365949 -2.1391494 -0.2524302 1.3627962 2.3746617 0.0010796754 0.119622186 1.3058375 -1.8705323 -0.37005723 -1.9079872 3.956708 0.75459516 -4.4220004 -4.5378656 -3.8607295 -0.7115855 -0.8497982 2.742881 -0.27251008 1.5856547 -2.0036733 -0.36856705 -0.2686996 0.16756767 -3.2111416 -2.5545251 1.8388523 0.2163641 -1.8415155 -3.42827 2.1146402
19 2.331761 -0.54177415 -1.0063701 2.75651 -0.38228846 -1.8095684 -3.4206305 -0.9151518 -1.3192173 1.7975067 0.5721303 0.9274025 1.8578043 -2.0452356 -2.2818491 0.6571225 0.21561559 2.0573318 1.3043 0.54008055 -3.0457122 -1.101657 -0.31237498 -0.37975273 -0.09053311 -0.7896358 0.9611537 -0.8107506 -0.36012703 -1.2960418 3.5017378 -1.5631166 -0.29717022 0.2884594 -1.8713318 -3.8918028 1.3968734 -3.0693133 1.7931898 -1.344377 0.5286945 -0.13567582 -2.505104 -2.664158 1.9673452 1.3799073 3.5850601 0.69832563 2.0136971 -1.8455555 1.555494 0.1369267 0.03887413 0.6445815 -1.4552705 0.614398 -2.4612775 -2.7131517 0.23865366 -1.003687 -0.4784157 -0.3651492 -1.3039696 -0.09306094
85 3.770559 -0.22275636 1.9359444 -2.6045294 -3.01939 0.6179177 -0.7703518 -0.19872533 -4.982255 -2.1095579 -3.519089 -1.0911374 -0.004643816 -2.311158 0.5116899 0.9688724 -2.2637103 1.6490633 2.3165793 0.45469755 -1.659662 -0.9456876 1.4176923 -1.6357167 0.5767154 0.7526208 -1.3688639 -0.06852967 0.48400748 -0.70925343 1.0753245 1.4833778 -2.4219234 -0.21573803 -2.3435361 4.692185 0.4859731 0.7054318 -5.1026363 -1.225327 2.0981767 -0.24193247 -1.1909245 0.28846934 -4.411687 0.16327585 1.9720576 -0.41268203 -0.5601 3.6196628 -0.7102719 -0.44019163 0.23346832 0.9461144 2.2346427 -1.5026964 -0.85826635 2.4319215 -1.5697681 1.4071932 0.11234021 0.124857485 1.0973223 -1.9448309
70 2.2937877 -1.4987336 3.949499 -3.0787072 -0.7285569 -0.92021984 -2.2837253 -2.4950747 -2.7778993 0.22891606 -1.0955739 -1.4649128 2.8744404 -2.7925153 -1.218204 -0.035938006 0.32155755 5.5216913 1.2507396 0.39677554 0.21085614 -2.3440866 0.63248485 -0.7463675 -1.1054233 -1.7729117 0.8332718 -2.4278562 2.0587738 -3.0059028 2.7691681 1.3331536 -1.9759281 1.50306 -2.2262402 -1.895277 0.86950004 -1.2811755 -0.8303309 -2.6672378 1.655235 -0.04509167 -1.768246 -0.92706853 1.5442631 -0.3956596 1.3534098 1.2010347 0.15353072 0.049017467 -2.7135513 -0.322047 3.5847664 1.9012061 -2.5694633 2.4888043 -3.0196362 -0.3885081 -2.6273584 1.041591 1.4780494 -0.35838765 0.31749913 -1.031677
69 -0.40480548 2.0433648 3.0978615 -2.8255358 -3.288458 0.25759777 -0.49888697 -2.4244819 -3.113786 -0.71649885 -1.3277878 -0.22775282 1.750995 -2.2262383 0.5047885 -0.06856701 0.48761377 4.9020476 0.11555119 0.6486214 1.5599095 -3.7277663 -1.2312893 -3.0354955 -0.8426541 -1.5983068 0.5302033 -1.3176683 2.5144863 -0.50814974 0.6964177 1.0759474 -2.0273054 1.1085465 -3.5459385 0.30656466 1.9359434 -0.32688993 -1.4765354 -3.5473514 0.96047956 2.0974655 0.20904595 0.7870306 -1.0462126 0.17317423 -0.5763965 1.4693068 0.7465839 3.3299005 -2.1828833 -0.32194462 1.8708744 2.1527662 -1.6358973 0.11735267 -0.8225351 1.9052029 -2.0488095 2.4962263 -1.1820675 -0.84947824 0.33567697 -1.4123161
162 -3.0204954 -0.8950695 -1.7877588 2.2016873 -0.21851282 -2.1037166 1.1583481 -2.308471 3.0283961 -2.6977768 -3.6508982 -0.60093164 -1.9027148 0.20381396 -1.880788 -1.4304425 1.2945492 0.56050456 -2.1363657 0.16320165 -1.4717324 2.12821 -0.28854483 2.2426872 1.3372185 0.069062226 -0.6157007 -3.5881457 4.977805 -1.0006584 -4.533776 -0.04462822 -3.262991 2.9565983 1.2988019 -2.279583 0.48500034 -1.7926015 -0.6612909 2.718887 -0.3145643 0.35578656 0.8297344 0.48799464 -3.4386125 -3.1963878 -3.313669 -4.5863338 -0.5480933 -1.0110636 3.508104 0.127651 2.7262707 -2.7763362 -0.005647148 -1.6801901 0.33440056 -3.2420022 1.5087156 0.2513796 0.5505064 -1.7740313 -1.3922079 0.90134275
21 2.8323143 -0.6121079 -1.8389937 3.7217512 0.9594662 -1.1040113 -3.30211 -1.8372864 -1.4497617 1.0123488 1.0174844 1.5254931 1.5018916 -1.7756078 -2.5309947 -0.72701764 -0.025808744 0.511795 -0.055071164 1.8290704 -2.1940067 -0.42660517 -0.564824 -0.57450676 -0.63948107 -0.44223306 0.49475768 -0.5327207 -1.9099991 -1.7983183 2.2574697 -0.8719627 0.46946165 0.99676937 -3.2765036 -1.9768865 1.3080484 -2.5345612 1.1056334 -0.6040339 -0.8806321 0.11038552 -1.9007004 -1.6246538 1.5295317 1.5561167 3.3817055 0.78549564 3.1970692 -2.2769785 1.6574023 0.4634511 -0.9723685 -0.069361605 -0.14535014 1.8243678 -0.47666746 -1.9890528 0.9638195 -2.4748619 -0.6634278 -0.99123585 -1.9610463 -1.3171536
139 0.5994088 1.7551879 -0.06354818 0.5115178 3.5256934 4.1556487 -0.23293117 3.4970834 3.1928718 -0.4399388 0.8432577 -2.4117525 -1.6883104 2.8226295 -1.9478759 1.1279474 2.3714964 -1.2058257 -4.243645 -1.306051 -2.3869896 0.08376574 -1.3600227 1.5955966 -0.30041695 2.4721482 -1.5798088 0.6726311 0.6193644 0.6072551 2.4256952 0.53410214 2.6871126 0.8910028 3.153692 1.616104 2.0466418 -2.5642688 -1.5942636 2.447958 -1.3401392 0.11743976 1.2586684 1.0392576 3.798483 -0.19085461 -0.3563182 3.6183438 -0.26713002 2.505058 0.6872746 -0.3295375 -0.38962904 2.531091 -1.2996839 1.5306814 -0.5939481 2.3590713 -1.029903 2.598333 1.537277 0.2482774 1.5110958 0.6456084
17 2.4938414 -0.31004938 -1.3094344 -0.16222806 -0.026958833 -1.5234728 -3.2289624 0.21565063 0.23308074 2.2357786 -0.8493692 -0.32937348 1.8283027 -0.80826515 -2.4010446 -0.57003284 0.17119795 1.8944703 1.6015722 0.23402698 -3.1107757 -1.2020642 0.32166195 0.57851857 -1.1519027 -0.54611 2.4586928 -0.9843472 -0.7538368 -2.1490872 3.3188868 -0.6108027 -0.8202431 -1.0121554 -3.338361 -2.7047908 -0.46408224 -3.482595 1.8900262 -1.2798364 -0.27798045 -0.37859142 -2.552489 -2.1695292 1.0741539 1.3338499 4.2015777 1.3214014 1.145542 -3.4037936 0.2670474 -1.6936916 -0.72389895 -0.9306488 -1.3917462 2.3349144 -2.556951 -2.2227376 -0.9859896 -1.0426937 -0.057331417 -0.728527 -2.6636386 0.06287179
41 0.89020145 0.42494062 -1.0872113 -0.17798434 0.32864928 -1.3014638 0.71338433 -0.56838095 -2.180704 -0.1935084 0.4514222 2.792903 0.013568596 -1.9784857 -0.42517188 1.9200002 -1.1804776 1.5524172 1.0913578 -0.27820706 3.685316 -4.862018 0.7888949 -0.4124775 -3.6664467 -2.1226428 1.8632814 -2.0563722 -1.1515816 -0.21187994 1.5655115 -0.8080794 -1.4869509 1.0098096 -2.288988 -1.257097 -1.5314829 -0.95518154 -3.6150637 -1.9733514 0.6971587 3.2192836 -5.173361 0.31855488 -2.1595163 -0.9124587 -0.015271129 0.6429814 -2.1463423 1.0166849 -5.6410594 -2.4604797 -1.4865189 2.9723766 -1.42378 -2.5714622 0.56520337 3.0020447 -0.33409533 0.90185773 3.027331 -0.47385016 -0.39328778 -1.5596646
190 2.7610621 1.7099388 -0.5464312 -1.1190416 -0.028666604 0.52279836 1.2591252 -0.9348049 1.3225571 -1.7759024 0.88192225 -0.771743 0.19379215 2.5618048 -3.4244332 0.041370317 1.1468893 -1.7840546 2.5305295 0.60557175 2.1625128 3.4643106 1.9304993 -1.5522891 0.50307107 0.4842686 1.2617126 -2.1216595 3.7097921 1.3020252 -3.1181262 -1.7674136 -2.8871713 0.4273856 2.7623456 -3.3364737 -2.8425457 -1.4430928 2.1390438 -0.98631644 1.6840507 -0.28749803 5.4881635 1.82383 -1.2662817 0.34297922 -1.896361 -1.5920578 -1.1215866 1.3215153 2.3575816 -0.39767513 -0.8431514 -0.09020336 -0.24321969 -0.6278074 1.589239 -2.0262852 2.5090008 -2.202228 2.392962 -1.7762517 0.25719658 1.8049456
8 0.85876083 0.42892948 -0.50590944 1.699037 0.7834995 -3.4314876 1.6287537 1.7141913 1.0893176 0.29442766 -1.8460658 3.646658 -1.565127 -0.8439578 -2.1688566 1.2558379 0.4085365 0.51763505 0.10418821 -0.85231864 1.8311185 -1.6053673 0.22626753 0.29180542 -2.293999 -0.14193925 1.6185852 -2.745501 -1.0217708 -0.5526746 3.5200868 0.19454668 -2.132766 2.447886 -6.3306174 0.06487993 -1.6640854 -1.8857585 0.14344078 -2.5250819 1.3446008 2.5723376 -4.921208 -3.2215672 -2.903708 0.43536025 1.8362051 1.7004251 0.5045481 -1.9333173 -4.400181 -1.7252237 -0.7526166 0.8010415 -1.2071596 1.5161966 -2.9504154 2.3331294 -1.5901692 -2.9327924 2.416909 -0.03678344 -0.81275696 1.854153
106 -0.9027775 2.1689177 0.4996877 1.309877 2.3744268 3.1517036 0.4378902 1.9884801 0.87843937 2.7096105 -0.7195795 0.59763926 -2.1263077 0.632953 -1.653945 -0.7707374 -1.8952776 0.5179613 -1.2661904 0.099375606 -0.47381374 2.9836168 -1.424961 1.3858056 0.28752443 -1.8468359 -0.19606373 3.0214288 -2.4763746 -0.88083416 1.9518136 4.4255137 -0.24431042 0.77157986 3.728657 1.2844232 0.48560408 -2.2975676 0.6544382 -0.90534854 -2.1249404 0.10416996 2.8616383 2.539214 1.5384449 3.3962452 1.6434633 -1.292608 -2.8791823 4.5196 1.3246639 -1.6538682 -0.08465574 0.49261752 2.1763346 -1.1350931 2.4989362 2.1865852 -0.9397376 -2.0166187 2.5100517 0.46339837 2.4630322 1.0682223
12 2.067598 -0.12294117 -1.1393074 0.83496875 0.5270381 -1.1527289 -2.6732075 0.6286697 0.81887937 1.3114982 -1.5763742 1.842187 -0.9727772 -1.1329849 -4.359488 1.1208572 -0.36442724 2.0996652 0.9886293 -1.0671978 0.25713977 -1.3314424 0.40747175 -0.49646658 -1.0027105 -0.774068 1.3835067 -1.1623254 0.3234736 -1.1467505 2.6143537 -0.3714846 -0.6231539 0.8609075 -3.8686593 -3.132506 -1.294035 -0.65837574 0.6315216 -1.5269029 -1.666436 1.364807 -4.316718 -2.5544178 0.043669052 0.73953 3.2114522 0.8398969 0.1919674 -1.869571 -2.6279244 -1.0809951 -1.6173639 0.060242847 -2.9110448 0.6260305 -3.2030776 -0.564275 -2.3932986 -0.32128894 2.4299061 -0.69498515 -2.0692046 -0.3710405
137 1.0006901 -0.85511863 2.6781077 0.6033567 2.356586 5.594118 -0.16232643 1.7825772 4.58569 2.0691228 1.0190632 1.323826 -1.9609288 2.1344466 0.43983886 3.2793756 6.131189 0.27894562 0.4577999 -1.7926435 -2.8198097 0.8479573 -2.9108503 1.4584442 0.4776783 3.3968568 0.5652725 1.1115394 -0.8822111 -0.15374658 0.47721925 -0.34450808 -0.46191603 0.73639816 2.2558014 3.1251938 0.25214916 0.5460427 -0.9432849 0.5547754 -1.3352231 0.4148956 -0.36531842 3.262545 2.6670043 -2.056172 -2.1117945 1.0310576 -0.028580554 -1.1234853 -0.89771515 0.100633316 -0.54267544 4.114471 1.3893024 0.9811689 0.4493327 0.38561153 0.56775284 2.619263 -1.4349124 0.6252888 -0.91105247 1.0139849
62 -1.4462265 3.6485329 0.3911907 0.11700822 -0.9896004 1.9997408 0.7754156 -1.1096488 1.2586757 3.361604 1.3535503 1.8684552 0.14764662 1.6996547 1.4584869 5.2270465 -1.0912136 4.28752 1.9293612 3.2560222 -0.05676817 4.3254433 -1.8401418 1.112289 3.0207286 1.272769 -0.32418123 -0.03303838 -5.026308 -0.67455876 -0.29192266 0.32013422 -0.7424417 2.6255252 -0.94701433 2.3176227 -2.2144747 1.8739679 -2.4086797 0.7899433 -0.11872204 1.0898757 2.982653 0.6866946 -0.521249 -0.37735304 0.006830795 2.655755 0.92603564 -3.0783353 -0.8427784 2.701067 -1.5807849 4.3542776 1.6304164 -0.44774485 2.0047984 1.0717205 1.9760417 -1.238422 -0.6204458 1.8202708 -2.6988664 -4.6576023
104 -2.7308125 2.506295 -0.7209553 -0.032933217 2.143905 3.2244055 -0.30841458 2.8056664 -0.7761133 4.4954348 -0.9239879 0.20512724 -0.48779392 2.4969847 0.018842923 1.5353922 -0.28528312 1.6732068 2.471342 2.5811803 0.6928439 4.03063 -0.14540331 -0.3587986 1.2651542 -1.3831946 -2.4988062 0.614221 -1.9234726 -0.97667474 1.0735645 3.1189783 0.5482816 2.008613 1.4903951 -0.34696653 -0.34188238 -0.593801 1.0429883 -0.11324651 -0.984745 1.9421815 2.2245955 3.2047894 1.7572423 3.2426596 0.22535913 0.13645728 -2.5564544 1.2242512 1.3213209 -3.6430655 1.0092677 -0.14434181 2.448521 -2.1794677 1.3080679 1.3572565 -1.372592 -1.4589448 1.4644955 0.50698495 2.8455951 -2.9317431
111 -0.30109566 5.2668934 1.1039419 2.5215971 7.0397935 0.37297162 0.85609365 3.1443095 2.1890483 -2.0078993 -1.1393746 -3.3392665 -1.2340341 2.6360302 -2.2958922 0.58502924 0.3983535 -2.9801154 -1.9863955 -0.82723916 -1.9518756 2.5283098 0.17422406 -0.059745707 0.5488064 -2.0707102 1.7838951 3.6249971 0.3638496 1.068086 1.2980142 -0.039009936 -1.2687253 0.5584189 4.9904056 1.1306354 -0.27207342 -2.5516376 0.7958786 -2.5618842 0.2849054 0.30232033 3.4824173 2.3826642 2.6030326 -0.28624764 0.5890159 2.0605228 -1.217785 4.455899 1.8195161 0.34168294 -1.9691725 2.0009367 -0.099357076 3.6495996 0.34232062 1.1190281 -0.6870755 1.7689706 2.74423 0.27911884 1.8062879 1.6878554
18 2.4691079 -0.28956243 -1.6938734 2.1331875 0.34035632 -1.5137846 -4.1307497 -1.2751547 -0.93222636 2.404104 -0.83376765 0.49118862 2.1136763 -2.0534444 -2.908491 -0.19372162 -0.42712897 1.7514435 2.45505 0.18491861 -2.6346238 -1.2285924 1.3977183 -0.42876253 -0.50864244 -0.11797305 0.45277235 -0.82321894 -0.9522064 -2.1381514 3.200345 -0.78427327 0.29443812 0.81697917 -2.1314683 -3.4424276 0.45299932 -1.8001704 1.0567805 -1.9135847 -0.5372357 -0.03001115 -1.5868638 -1.9917461 0.17465967 1.5322421 3.8847072 0.72277194 2.4686072 -2.294353 0.25482327 -1.8955477 -1.0905904 -0.080692686 -1.1625674 2.0359282 -2.7121105 -2.8571343 -0.40269935 0.4455325 0.43940127 -0.6810131 -2.0789678 0.35297182
91 -0.30157292 -0.778625 -2.0855927 -0.2599751 -0.16099173 -1.8075278 1.4782784 -0.14030986 0.042301588 0.0070978776 0.8773606 2.9041986 2.2463365 0.22883545 2.9419918 -0.7448528 0.17631014 3.483547 1.7395163 1.2733092 0.85031176 -3.5963657 2.8498354 0.3423252 -0.5706511 -0.44339758 2.4752893 0.9690726 2.066115 -0.46229228 0.8166891 -2.7270038 1.2232625 0.7948262 3.0427082 2.221258 -2.7384903 -0.4105885 -1.1161253 -1.3674066 0.57575554 -1.0611845 -2.6256769 1.4636444 -1.206748 2.1036348 -2.382837 1.0653316 -1.4040035 1.569398 -1.1109118 -0.99249345 -4.0128236 0.16899721 0.71682376 -5.07479 0.46141177 -0.53760344 -0.7760929 -2.0055966 -1.1042278 0.066151 3.5655563 1.5140342
14 2.3259287 -0.9117503 -0.49431437 2.092854 1.99883 -0.9867075 -2.9224646 -0.5723852 -1.3217773 0.048856556 -0.5862197 1.1598877 -0.86159027 -0.56340057 -3.1428213 0.7518463 0.8460798 1.9762201 0.42729872 -0.3699388 -0.98665935 -2.0526762 -0.25404826 -0.9443541 -0.22067694 -0.1719309 1.159602 -1.7005165 0.94798934 -1.0783471 3.150829 -0.025126442 -1.0420891 0.5261105 -4.2448845 -2.814973 0.22210546 -2.8421884 2.0301418 -1.7074958 -1.4261281 1.0369385 -4.07057 -3.0125592 1.7368782 1.4287491 2.6803343 0.5320609 2.0107732 -3.0484009 -0.9469888 0.6568772 -1.0756047 0.7856442 -1.9421381 -0.006715574 -1.9903212 -1.4488943 -1.7911905 -2.5006976 1.2424608 -0.43411732 -1.1399249 0.8540043
175 1.5206547 -0.75310445 -1.7890414 -1.1597518 0.43960533 -0.75702983 -0.3018329 1.1421465 -1.4549956 -2.2623007 1.6007266 -1.9001608 1.9068111 1.6535661 2.258029 1.5958977 1.1465603 -0.2310139 -0.040632255 -3.2597082 1.9382201 1.156596 -1.8576491 2.0240376 -2.276957 -2.762009 -1.0864705 0.5209139 0.38050774 4.388337 1.5838956 3.207258 5.446604 -3.180103 -1.1393179 -0.18532066 0.69920564 3.8647316 1.4192486 -0.8635614 -1.0194465 -1.8003265 -0.31262493 -1.4180217 -0.5938221 0.81493396 -1.4574323 -3.8092587 1.1786815 -0.6869297 -0.5113365 1.083608 1.0832735 -3.0329478 -0.80286026 0.9032478 -0.97358984 -1.2894915 2.3215442 -0.7478572 -1.4129512 1.8269025 -2.5891442 -0.3043056
127 -3.0367508 -0.07186685 -0.20498665 2.5193245 2.002609 3.3718882 -0.5113319 -0.40962172 1.0310236 2.6924684 -0.40111002 -0.47571 -1.1151335 0.10670698 -1.4865775 -0.9273124 1.4229786 -3.4593358 -0.53034884 -1.2374077 -1.7261864 -0.22803278 -3.2444835 5.5788727 0.93796945 0.85163736 -3.5983462 -1.5236778 2.578346 -1.7390374 -3.0670094 -2.3625298 0.6878342 -0.5457016 -0.45118633 2.4505765 0.5683413 -2.6911652 -1.5864239 0.24305859 -0.2821272 0.86432993 -1.4288177 1.3011571 -0.6786387 -2.8825493 -3.1053283 0.4424436 0.9423783 -0.08133025 0.92841166 0.3459613 2.3579514 -0.8523309 -0.24959342 -1.4532865 -2.319021 -2.9295006 -1.5208476 1.9559598 -0.2839601 -1.7883753 -1.3828377 1.4858826
195 1.0897266 3.0937872 0.24872126 1.5594473 1.0054808 -0.5569919 0.8927545 -0.82605904 -2.2605453 0.29292583 0.6865407 -2.1625228 -2.0046966 2.6576228 -1.7779206 -0.062271595 0.083451524 -2.275156 1.7849551 1.3671634 1.7901182 2.7604902 2.7944038 -2.5469117 0.36297053 -0.4834397 2.901707 2.5688062 2.273572 1.7797505 0.039663382 -3.8434448 -1.8890836 -1.8927009 2.87057 -0.4127172 -3.5403793 -1.0682497 0.66768914 -3.1807284 2.6833777 2.0209033 3.6028771 1.2491851 0.8994346 1.4373953 -2.2660236 -0.6343612 -2.5595708 1.4611601 2.0940216 -0.8849279 -1.4303885 1.8532233 2.0068767 -0.31897148 0.9960531 -2.6423218 -0.3423144 -2.573526 2.6429265 -2.2691715 2.2522864 1.1381828
143 -1.3585019 -1.5739217 2.6581314 0.6524374 -2.0932302 1.2852057 0.31490323 2.1538305 5.2056274 -0.7236988 -2.2996306 -1.6727767 0.016500255 1.1847769 0.78656155 -0.7393018 -0.79044574 -3.9280283 -0.48059627 -3.4251184 -0.57862556 0.39180315 1.8665149 1.6656343 -1.761748 0.6895799 -1.5946369 1.9481617 -1.1589679 2.603766 -1.2495946 3.1344907 3.1183763 -0.7345042 -1.726124 -4.381989 -0.57162035 -1.7906846 1.3154072 1.7772753 0.0059867 -3.7767205 2.206292 -0.43041635 3.2024162 -3.838172 -0.043141175 -1.3859274 3.2639465 -2.52177 -0.82659817 1.2970136 -2.3648446 -0.33662304 -0.901286 -1.9643127 -1.1987202 1.863717 -0.1420913 3.5691574 -2.191182 -1.3392165 4.5323195 -0.37955013
177 1.0808038 -1.1599365 -0.56132376 0.6333976 0.18014465 -2.526093 0.14440107 2.1287024 -1.2597426 -2.6738622 2.9774013 -3.1771972 0.7811322 2.6789508 2.1712565 -0.9287583 0.85368246 -0.32030478 0.49898842 -1.1176702 0.25060034 -1.0450183 -2.1791072 2.040906 0.69909966 -1.8207656 -0.57961863 0.35047624 -0.9175067 2.393653 2.8774002 3.505824 3.6203196 -0.6090548 -0.26580352 -1.8432264 2.4897385 4.2949924 2.0403514 -1.2247719 0.53398365 -1.37362 -0.016200516 -1.0382646 -2.017005 1.3784785 -3.5775545 -3.104896 0.48788637 -1.1059413 -3.6421342 2.7631114 0.94554037 -3.055902 -0.79191583 -0.023197485 0.92548823 -1.2382944 1.6110768 0.08144317 -1.3439596 -0.4904564 -1.3517504 -0.34891653
54 0.76369375 1.1064725 1.2666649 -0.8031768 -0.6750575 0.6268786 -0.7673176 1.2061801 2.3779254 0.3537773 2.5206547 1.919806 -1.726422 2.0924382 1.3490033 3.2364795 -2.9135609 2.938649 1.7527584 -1.6933024 1.9502152 0.90466297 -0.24886626 2.6889975 -0.5720264 3.6861935 1.3231881 1.5072366 -4.3145103 -1.0298874 -1.7202183 -2.6296504 -0.5723426 3.5087817 0.32668552 -0.36013445 -0.91164094 0.5076865 -2.1235607 -0.5331186 -0.6355945 2.206554 2.6696134 2.2492943 -1.1017112 -0.15395002 -1.5465698 3.7106872 -3.0327723 1.2270832 -0.7187528 -0.250524 -0.9534078 0.33975005 0.5117647 -1.8614435 -1.7196251 -1.7993044 -1.0369612 -4.277783 -1.8423135 2.325169 -1.3802102 0.8734323
95 -0.8487885 -1.1770399 -0.60657567 -1.3540825 -0.09098594 -0.58423334 1.5443267 1.234519 -2.744653 1.3250148 -1.5914375 -0.78277445 0.10528055 -1.3127367 1.4885416 -0.27535412 -2.5869088 1.9420688 0.49576688 0.6672138 2.1900017 -2.643557 2.9403725 -1.19188 -1.9438268 -0.06889422 1.0711944 1.9042014 2.5988464 2.4834185 1.3761927 -3.6606677 0.70582795 -0.5123372 2.6081953 4.0796742 -3.3388283 -1.2876853 -0.81421965 -0.555259 -1.507463 2.3359652 -1.1041964 -1.0515351 1.1204894 3.591767 -2.4666553 0.44041118 -0.07193076 0.5964675 -0.9887341 -1.0709419 -2.709908 0.7977102 1.632913 -4.1256313 1.1887189 -1.1796205 -2.300389 -3.0589705 -0.9088831 -0.9716255 2.2261372 0.747315
97 2.6656897 1.0607785 -2.657367 -0.64924777 0.097733036 -1.7040188 1.5192634 0.9554893 -2.049158 2.5875773 -2.3057072 -2.1128564 0.86835855 -1.5297089 2.880196 0.5696685 -1.9008976 -0.94991344 1.0872042 1.6897885 1.3763175 1.1597787 1.7051455 -2.2017796 -0.5627047 0.063696116 2.0347958 3.1915557 2.8640087 -0.29945114 1.0867658 -1.8388876 0.42420948 0.5800434 3.5522437 3.7233083 -3.661965 -1.9309235 1.8758218 -1.4760988 -0.74711317 1.3391234 -0.045655087 1.4538848 1.1145523 3.470919 -3.3070087 -1.4953225 -3.9023364 0.33520952 0.29117912 -1.5169414 -1.830712 0.6576944 -0.09642921 -2.9624515 0.96497804 0.11983972 -1.3891631 -3.0130076 -1.6585587 -1.8186935 3.959591 0.05175622
194 0.9855648 4.771475 0.032906793 0.29376796 0.55306447 -0.9785164 -0.5473037 -1.1733234 1.2771418 -0.3931374 2.2306845 -2.9129865 -1.3002026 1.7424012 -0.15294518 0.68490034 0.80906856 -2.0648932 1.6153352 2.2417986 2.3357992 4.7335434 -0.874063 -1.7312447 -0.2798312 2.2859356 3.8209286 1.9979777 1.2017521 1.269049 -2.0685494 -2.662232 -2.845501 -0.06649331 0.975916 -1.212646 -4.00242 -1.2937943 0.546629 -2.1275516 1.232912 0.6042069 3.7782602 2.4929023 0.39495465 2.3505769 -1.6054577 -1.8461927 -4.6707525 0.271796 2.542394 -1.4471358 -0.8358352 0.035960484 0.89860535 -0.58138233 0.5683152 0.28096697 1.045549 -4.079438 -0.790849 -0.05395211 1.6995263 1.229821
181 1.0324782 -3.919894 0.36729258 0.56272614 0.6732801 0.83133125 2.6431139 0.8084094 0.5096594 -3.9379394 1.2902592 -3.1232512 0.9477327 1.36421 1.556608 -2.7640338 -0.54213554 -2.9950814 -3.7293527 -0.6461834 -0.5214233 -2.1582232 1.2513247 0.5199827 3.0134904 2.185615 -0.8028199 2.9352877 -1.7030038 2.4777992 -2.7227628 0.91236365 -1.3901665 -0.92379874 -1.1870843 -3.1815288 3.4992723 1.6972672 4.5229864 2.7864172 -0.44525883 -0.9642588 -1.2083195 0.25543696 -2.112479 1.2358767 -0.6957527 -1.8284211 1.0836226 -0.0956319 -2.4101815 0.44590077 0.16738512 -4.1998076 0.12829553 1.2604635 0.36890957 -0.8546402 2.4917946 0.41539726 -0.96026593 2.5522695 1.7303256 -2.7017257
94 -2.0542593 -2.8272955 -0.9252868 -0.9895705 0.3587608 -1.7681985 1.234315 0.40866458 -2.061057 0.6914326 -0.96674395 -0.16901857 0.82420343 -1.4141239 -1.1203394 0.2198712 0.56458396 2.0627542 0.7469448 0.6794398 1.8166957 -2.6426125 3.408208 -0.01854185 0.09074117 -0.41722137 2.563537 2.2120647 1.7027987 2.179156 1.2768334 -2.0705302 1.198623 -0.047224153 2.3382685 2.2614706 -4.109033 -0.30114904 -0.39661375 -1.1719255 -0.3485141 0.3181282 -0.9697243 1.1835734 1.2038844 1.8444928 -4.247413 1.1077855 -1.551654 0.70825785 0.9847445 -1.2005455 -3.889992 0.03518746 3.0851035 -5.2484345 1.3568938 -0.79804796 -0.5083218 -3.1117072 -1.0687962 -0.35852987 4.355535 -0.0064353314
178 -0.3876977 -0.6925587 1.8596444 -0.5300456 -0.8171124 -0.2851307 0.7948264 1.9167984 -0.10461802 -0.7211745 0.871132 -1.8800864 1.1486031 2.769974 2.4197261 -0.6362058 0.42241523 0.0998005 -0.7768834 -2.7315495 0.34919462 0.6921536 -0.34127966 1.7095296 0.27219415 -3.2498822 -1.5800835 0.8519576 -0.8737365 1.5030063 1.5007308 3.352351 3.862655 -4.3252716 -1.623069 -1.4856459 2.349195 2.47097 1.1334801 -0.8142497 -0.7612264 0.023274865 -0.5006765 -1.5502723 -1.9523112 1.1975423 -2.8294415 -2.4327395 1.4909632 0.298086 -1.9926956 3.748302 -2.2301655 -5.9144917 -1.925913 -0.28806078 -1.4102077 -0.4914487 3.539998 -0.267943 -1.1533171 0.86430573 -0.41367126 -1.0429313
147 0.8736373 -1.6039662 2.5814621 1.2713858 0.4287155 -0.1854045 -1.6314508 3.3049538 0.70122653 -0.050004527 0.56608343 -1.5537177 2.2301373 2.535404 3.3911276 -2.4883568 -0.94385815 -1.9875449 1.0047324 -3.3351753 -0.7698571 0.52197856 0.521839 0.240229 -2.4105332 -1.2953479 -1.4861927 1.2698458 0.0932972 2.8113654 0.81768245 3.103856 3.8210742 -1.631959 -2.5635102 -2.5143864 1.5959507 3.0084002 2.2668998 1.4894054 -0.3939467 -0.11194587 1.3939773 -2.0337975 0.046754584 -2.1411421 -2.9813766 -2.1358173 2.4975097 -0.80932534 -3.6905327 2.6943285 -1.2780972 -2.8451333 -3.635963 -0.58427066 1.5472261 -0.49192902 0.8387569 -0.61703587 -2.6955814 0.20949781 2.9077363 -0.49574906
128 -2.465769 -0.14658828 0.09572609 1.390306 1.4842272 4.183744 -1.0193211 0.34161 0.54319686 2.334504 0.20032145 -0.95532006 -0.9866548 -0.008654639 -1.0341802 -1.4593334 2.2035851 -1.5347387 -2.2375853 -1.2021863 -2.1511695 -0.044347286 -1.1073984 5.550169 1.3318938 -0.11157121 -3.2159708 -1.7501007 1.4750625 -0.3141669 -3.5266607 -1.1340961 -1.2737869 -1.9580989 -0.07311236 1.1009345 0.010205214 -1.6791389 -3.2203474 1.5134896 -1.2458993 -0.052300755 -2.0154166 1.4058342 0.6258389 -3.00055 -3.6420481 0.049928024 -0.39030966 -1.1448233 0.859891 -1.4805768 1.927998 0.13856466 -0.037592307 -0.8533677 -3.2505517 -2.3786788 -1.1753421 2.1940076 0.4013252 -2.4429123 -0.83989275 1.6294478
98 -2.7172794 -0.47961476 -0.4737152 -1.186217 0.04848472 -0.25701603 1.1975209 3.6521053 -2.7636755 3.797219 -0.56124085 -1.6174961 -1.6183033 0.6723196 0.99079865 0.666387 -2.486929 1.1180335 0.285566 1.4097966 2.1175067 1.2357461 1.8629487 -2.3844063 0.83134216 -0.7995507 -0.81691444 4.440994 1.351991 0.5347407 2.396418 -0.32987246 -0.49483687 0.006025676 1.641352 2.8678908 -2.2824354 -0.76528096 0.27771288 -1.1461157 -1.2578698 2.7174315 0.3647246 0.86355275 1.4696379 3.248299 -2.0884101 -0.9883898 -2.1613305 -0.88925844 1.7878593 -4.3425093 -1.3613638 0.15583435 2.6565685 -4.1431193 1.45878 0.46344572 -2.9504256 -3.1303809 0.8136824 -2.2871425 4.112374 -1.6283851
149 -0.6429384 -3.1215272 1.0420737 -0.09642807 -0.21058762 1.0200081 -1.2913637 -0.81113124 2.324782 0.67198336 -1.6268951 -2.0747561 0.62874717 2.7624085 1.8504387 -3.3375335 -0.72110534 -1.2288684 -1.9454263 0.067973025 -1.6869196 -1.8452642 -1.1774732 -1.9773865 -1.9093664 0.24643196 -1.6206918 1.5523257 -4.639631 2.694757 0.543954 1.8668633 1.8716103 -4.6452317 0.1861057 -3.4605293 1.2196796 2.2360363 0.06554202 1.2718878 2.4536178 1.7389992 -1.653094 -0.25908345 -0.59426606 -2.3983722 -2.196961 -1.1804903 3.5237322 0.648211 1.6093737 3.2816985 -2.984332 -2.193016 -3.418258 1.3787718 0.011353633 1.3659136 4.3537526 1.6324533 -0.107636295 3.5328572 5.048213 0.9196181
26 -0.15063374 0.14094953 -0.7932605 1.7399042 0.24167354 -2.0473664 -3.0285282 -0.33809027 -2.3720725 2.6343877 3.5519352 2.5147426 2.1388159 -2.9901361 -0.29993013 -0.53422105 -1.9282075 -0.027962292 0.22837035 -0.019567588 -2.345759 0.41530243 -1.3000544 -1.435847 0.7986635 -1.9782442 3.2282345 -1.0931197 -1.7327834 -4.1104255 -1.4919701 1.0234165 1.5098237 2.4016767 -1.6118073 1.3202927 -0.030657055 -0.104902394 -0.329909 1.5957003 0.67158026 -0.81958395 -1.662051 -0.022862706 0.72128314 0.73978764 4.0765524 2.7324657 2.835695 -2.8707368 2.6700158 1.0395465 -0.11987353 -0.75824934 -0.65214086 3.4408152 2.1181307 -0.9258172 2.6798513 -1.6903793 -1.5062127 -2.6350033 -0.7101312 -1.6156993
27 0.38899106 0.14058986 -0.5694666 1.2325748 -0.64407474 -3.5278523 -3.0557394 0.19534181 -2.4419878 3.339688 2.807551 3.6249123 3.805325 -4.248596 -2.0804622 -1.718498 -0.29561466 -0.5496749 0.69100374 0.6966036 -1.4175271 -0.1642468 1.0038621 1.0841014 0.63430685 0.20502226 1.3031279 -1.4828591 -1.2172993 -2.8600183 0.56571186 1.2537776 0.88090366 1.3798159 -2.0096698 0.8125209 -0.9342019 -1.3015649 0.9678506 2.6595457 2.8721306 -1.5894676 -0.43664333 -3.088087 0.8627896 1.3909166 3.279477 3.3130093 2.1318374 -2.461131 1.5689996 1.2225266 -0.45095932 0.5881947 1.6262904 3.046833 0.9183923 0.056070786 0.44139266 -1.3087281 -1.4361387 -1.6285175 -1.9898461 -3.30572
141 0.29200017 0.37359503 0.71142435 0.60068685 1.0382826 2.503224 -1.6029398 0.23722178 4.703826 0.2423653 -0.7016822 -0.46441635 -2.2330186 0.6436885 2.6059954 -1.3700448 1.5913378 -2.5738308 -2.2645428 -0.71489865 -1.5587821 -4.565852 0.93861336 -2.6483598 0.5165635 4.2884192 -1.6115414 2.1513617 -1.2972676 2.6658494 -0.29112035 2.2098308 4.051135 -0.45133442 1.2747412 -1.0754734 0.14570677 -1.7868291 -0.31270334 3.513373 0.059623625 -2.1100333 0.6862589 1.0121771 3.016279 -2.4605045 -0.2890469 1.3197975 1.3858833 -0.2978574 -0.7032795 0.81633127 1.8521097 0.38861775 -0.9033391 1.4153984 -1.7794977 1.6441907 2.299173 2.4600039 1.0794386 0.17946447 1.7904828 2.2930236
82 0.69826937 0.4751691 1.0079875 -1.6042576 -3.1452265 1.7593702 -0.8072116 -2.111409 -5.1344976 -1.7853471 -2.5402489 0.30958855 0.18084532 -2.23382 2.0026445 -0.279226 -1.3638821 1.9242911 0.85402215 0.59708744 -0.97767705 0.24204944 -1.091985 -2.5146918 0.054722182 1.6505938 -3.4119744 2.173272 3.3060617 0.34651467 -0.61196786 3.568184 -1.7122403 0.44133377 -1.1488557 2.7140641 -0.93019825 1.8244779 -4.4912 -2.9578938 -0.00025834306 0.60611355 -1.4069301 0.14144064 -4.166476 -0.107996225 2.2857049 1.4116224 -0.5151952 1.3971001 -2.6294131 0.6722612 -1.1742123 2.2204244 1.715473 0.8629206 0.10826301 2.2272894 -1.2400419 -0.16189261 -1.5852113 -1.2634766 0.36500233 0.2096573
71 1.8665165 0.33393136 4.40932 -3.2723362 -1.3206918 0.21990183 -1.0344445 -2.366296 -2.6147754 -0.06932902 -1.3038064 -2.0306873 1.7901484 -0.6067543 0.12362712 0.3581633 -0.621729 5.096259 0.10876871 0.20079656 -0.6011142 -2.5598168 -0.48971075 -1.7605253 -0.18464558 -1.2232134 1.5331862 -1.180924 2.8632545 -1.2072634 -0.15137318 0.533816 -1.5142313 -0.6811441 -2.2024658 0.8045304 2.8363135 -0.37940308 -0.56888735 -2.598104 1.759157 0.56453425 -0.22294933 -0.48001236 0.5211327 -1.4388999 0.9898417 1.0424842 0.70454925 0.6556398 -1.6559566 -1.9580469 3.2528963 0.36643118 -1.7374076 0.20076552 -0.7293051 1.8281788 -2.0581672 0.6874504 1.1762017 0.8396432 -0.33052352 0.6262534
113 -1.1386187 2.8776824 -0.7628679 2.0838997 1.1043615 3.114466 -1.9516022 2.7725585 2.8634942 -1.933625 -1.7177725 -0.37164447 -3.6699948 -0.6529836 0.056569498 -0.28820765 4.4192924 -0.566707 -2.3036795 -1.1272688 -1.39995 -0.6182675 -1.2568809 0.06059196 1.1748251 2.8862476 -0.3332686 3.4892251 -2.2245815 0.0033146837 1.53623 0.75339985 2.49713 -0.93697476 3.6989932 0.77212465 -0.1314614 -2.1873717 0.9860261 1.8456411 0.60953355 0.22816883 2.2663648 0.31379795 3.9082842 -0.3008238 1.7480711 -0.24475738 -0.9686313 3.154451 -0.42735797 -0.40475094 -0.6131139 -0.5436718 -2.503207 2.6278164 3.3276167 0.3851875 -1.3295785 3.0891001 2.3730521 -0.09041416 2.4570577 1.5983452
15 3.0527596 -2.533841 -1.3915942 1.0907351 1.69795 -0.6629819 -2.307939 -1.0797336 -1.321166 -0.0109634 -0.94656223 0.9716345 0.37156874 -0.39981645 -3.0376794 -1.7676604 0.5428095 1.8769634 0.9676824 0.70039266 -1.180715 -1.009038 0.36159357 0.70630604 -1.077292 -0.3201879 1.8185561 -2.412721 -0.61276495 -1.9535584 4.5107465 -0.92950547 0.049987044 -0.20964238 -4.33247 -2.1456053 0.13091667 -3.2630916 1.0269564 -2.1235814 -1.8582435 0.64109737 -1.5977803 -1.7827733 0.13292962 2.0124965 2.8175142 1.1242038 2.7086492 -2.975829 -1.1375487 -1.3487785 -0.48425114 0.03392621 -1.4382321 2.3806071 -1.9904556 -0.79286027 -1.0261947 -1.5635278 1.8974813 -0.47791058 -1.6435274 -0.15981205
6 0.59939706 1.1906773 3.235753 0.6759848 -2.8872192 0.5623378 0.9952496 1.7562833 1.3991268 -0.10780441 -0.18735074 5.594649 -1.8689038 -0.7769967 -3.1441166 3.848171 -1.3210987 -0.6156381 -0.8949438 0.2446883 2.1150513 -2.1262476 1.0891321 0.41973373 -3.2692692 -0.59771127 1.125228 -2.326395 -1.6519625 -2.1838837 1.4109973 -1.8396647 1.3754401 2.7080421 -3.05136 0.057731573 -3.7959359 2.0290384 -0.8376782 -2.5339103 0.94263065 2.7293086 -2.6686573 -2.2005792 -3.1156936 -1.5682135 1.6917536 1.9237659 -2.4493039 0.2540606 -3.9806669 -2.6354477 0.5779022 -0.12631863 -1.1404864 -0.5222019 -0.13622352 1.9044499 0.870598 -3.1631882 1.6559863 2.752968 -3.136921 -0.11079876
53 1.4300504 1.8433021 1.3398768 -0.39938268 1.0144793 -0.31802425 0.13282792 0.63163984 3.4481914 -0.7933889 3.6422532 1.8297914 -2.2653213 1.4670668 1.8623616 0.6684935 -1.8762318 1.4009223 5.1170726 -0.75720423 3.0053236 1.277438 -2.023658 3.8864655 -1.7804272 2.7605588 1.3243674 -0.4672248 -4.715215 -0.8564724 -2.432217 -2.131495 -0.774651 4.340132 -2.4755874 0.08955868 -1.8264501 0.72873974 -1.9868389 -1.8739243 -0.57301646 2.5788317 -0.9644992 0.30030134 -0.3805544 -2.9632592 -1.0861926 3.3307364 -4.279864 0.39392343 -2.2284527 -1.0029567 -1.0790596 0.1482204 3.5564756 0.17172311 -1.6618019 0.6329694 -1.2063658 -2.5830698 0.7081176 0.42253903 -0.017637419 -0.55849093
197 2.2725666 3.8371305 -1.234351 2.5848484 1.7103795 -0.35321105 -0.04871429 0.32351595 -0.04437307 -2.828926 0.2813041 -3.4174008 -0.98274064 0.15080874 -0.8970331 1.6147399 3.9885411 -3.5285814 3.5284133 1.4888886 0.44514433 3.558977 1.3178347 -0.36126956 0.27990803 -0.8638535 1.7056075 1.9855368 1.8841753 1.275128 -1.0929713 -2.2971234 -0.7624864 -0.17942722 2.1744604 1.2046345 -1.9939864 -2.9891768 0.9067868 -0.07237361 0.17328016 0.86957586 4.97611 2.60873 1.5206302 1.2262801 -0.097918004 -1.683586 -4.9442115 0.0021138988 1.6569272 -0.78308004 -0.03572626 0.3263318 -2.5871382 1.8829753 1.6786292 2.1584551 0.52877986 -0.5689988 1.3813609 0.6198228 2.3606923 0.9565031
189 1.687376 2.9264789 -0.5196801 -0.14718643 -0.48986742 0.2353942 0.42679194 -1.8968338 0.63337463 -2.8667183 1.6327025 -0.35647216 -0.16392447 2.136122 -3.4239783 -0.66486627 1.2518188 -2.2040575 1.4752278 0.31777918 2.252674 3.6222117 0.6158019 -1.7865226 0.00910571 0.7918365 2.1845417 -1.9309297 3.6926346 1.3527901 -2.4471965 -1.4339058 -3.816956 -0.31703943 3.0182302 -2.8688583 -2.8514988 -1.6933988 1.3487506 -0.05319815 0.99696076 -0.523515 4.1694202 1.9535336 -0.50576794 0.80517995 -0.8257363 -2.9253998 -0.94931734 0.68782306 1.5811223 -0.10871519 -0.56205034 0.17613827 -0.16457918 -1.9450983 1.52047 -1.1040703 2.41294 -1.5636085 1.0938545 -1.5980011 0.6598056 1.6835659
206 0.053251505 -3.5251756 -2.62523 -1.4136178 -1.8592511 -3.2209818 2.4204504 -0.84088534 -1.413933 -1.0659322 3.101514 -3.7682285 0.9353686 3.0976772 -0.17962238 0.07252814 1.8173687 -2.3449707 -0.610036 1.8385153 2.5576282 2.0824533 0.22971459 -2.53944 0.7701927 -0.16959545 -0.39153376 0.9113219 1.1645999 2.1075194 -2.0515466 0.78879344 1.3157085 0.77061623 1.2951145 -1.8236622 3.4890234 2.592916 4.3792186 4.3042455 -2.496519 -3.3507895 -0.9123388 -2.061157 -1.06387 1.4866967 1.2257733 -1.905013 -2.623377 2.7216716 -0.88544977 -1.643848 -0.56967705 -2.09152 0.50122654 0.28286633 -3.1708925 -2.3672175 2.7222667 2.7249174 0.2339562 0.102923125 -2.9708993 0.97592616
107 -1.3011336 3.0426173 0.5811494 1.1895124 2.998769 3.4410083 0.2136911 2.31621 -0.25355116 1.9671354 -1.0167243 1.2597073 -2.1226447 0.55406237 -0.8712273 -1.0860343 -0.13289793 1.0193733 -0.45392534 0.94104683 -0.8048454 3.870007 -1.6407208 1.4108688 -0.04824865 -2.8698292 0.30798095 2.3500526 -3.2185168 -0.9347149 2.3862383 2.918333 0.5821761 1.0327065 3.8771176 0.69432145 1.9265437 -2.112957 0.3736239 -0.523809 -1.4958698 1.0005078 1.4088563 2.393694 1.6501886 2.9845393 1.187603 -1.1801788 -1.0954466 4.347877 1.6758845 -0.6554931 0.17182238 0.5715343 2.4640903 -1.2833164 1.686056 2.5569308 -2.0758982 -0.7690134 2.6321435 1.2257472 2.33702 1.3939869
61 1.6215221 0.94482756 1.785946 -0.9484058 0.9340419 4.043847 0.22637168 0.916338 2.2104726 3.1151547 1.5941824 4.8547034 -2.7843006 2.4127305 -0.3040091 2.0860257 0.09842574 2.3030665 2.0639446 0.14056158 -0.16395088 5.167511 -3.288915 1.1097964 2.4823215 -1.0400509 -0.30520168 2.2957532 -4.109652 0.49367005 -0.14379208 1.1176246 -2.1207082 2.8972647 1.0060294 1.996424 0.9550977 1.1966304 -0.8428787 0.7550369 0.6963575 2.8614337 0.7858021 1.5270103 2.1943972 1.9595609 0.115268335 -0.53885263 -2.151388 -1.7841985 1.9623312 1.7160919 1.0762177 3.440405 3.1300178 -1.6748613 0.5870513 1.5146968 -1.449978 -3.465327 -0.6698467 3.7157218 0.77578527 -0.24994089
101 -1.3134949 0.9210619 -1.3953359 -0.12126714 1.1681327 1.6585723 0.7748911 0.3882544 -1.0463381 3.9255977 -0.670489 0.86320496 -1.612842 0.7603629 0.6311676 0.20557031 -2.2021015 -1.0023654 1.6126091 1.9963974 -0.113142624 3.2439876 -1.5816565 -0.66806525 1.4788158 -1.1196268 1.403834 3.3348532 -1.8494796 -0.87598866 2.5251384 3.7647936 -0.07833743 -0.061732817 1.6749908 0.6384669 -1.2536521 -1.5472031 0.20089741 -2.0255282 -0.6782472 1.8516093 1.0311915 2.9136617 0.7672446 3.930969 -1.8977917 -1.8121455 -2.8322716 0.96215093 2.4276562 -1.3475938 2.4348073 0.751718 1.6476389 -3.563045 1.106323 2.0615184 -2.9270375 -3.8261786 1.1311674 -0.626383 2.6929257 -0.3461403
126 -2.34134 -0.43500912 0.84706295 1.5598407 2.3312137 2.7061076 -1.6183649 -1.4404881 1.9235044 2.2460735 0.49191087 1.0260174 0.04351885 0.76389635 -2.0268345 -1.6153209 1.425477 -3.786638 -2.9332821 0.95266175 -2.4691122 -0.22854194 -1.251691 3.7964575 1.2777747 -0.38447094 -2.8696163 -1.666913 2.8056805 -1.5131724 -1.4355509 -1.729327 -0.04347236 -0.30788317 -0.15958315 2.3098345 1.0268809 -2.8881357 -2.3849065 0.27293113 0.06428258 -0.38204557 -0.7805176 1.6367674 0.070814304 -3.0926278 -4.8998723 -2.1566463 -0.5250839 -0.2702669 0.23487766 1.0456758 0.5870463 -0.8244947 -1.327694 -2.1557016 -1.8129829 -2.0999808 -2.5873897 2.8820126 -1.1570617 -1.5962665 -3.4376047 0.21025069
60 1.8012536 2.6006756 -0.3969351 -1.5845263 -0.024392873 4.93119 0.07786356 1.8533922 2.2860572 2.0079708 2.1260545 2.394355 -1.5648873 4.770902 0.28642574 3.64542 0.27071536 1.0756179 0.16209902 -0.08299134 1.1161361 4.13624 -0.31056464 1.5664297 1.0570607 1.6660687 -2.004226 -1.1302496 -3.913408 1.1924976 -1.4523696 -2.1398375 -1.0215042 4.218281 1.3590305 -0.11053355 1.0712645 0.31522885 -3.4300382 1.6567068 0.9146533 0.7487479 1.0405711 0.0018803498 2.1334903 0.29220125 -1.0734631 3.9020786 -0.42086813 -1.6702029 -0.5881416 -0.11633904 1.5338507 2.278182 1.1537521 0.9553103 -0.48354483 0.28169245 -1.8279587 -1.5734673 -3.8136332 0.9218487 0.96486527 -1.3328655
172 -0.37821212 -1.0759339 -0.66154593 1.4213125 -0.12742156 -0.33988136 0.8570494 -1.7470293 0.34306544 -1.3351917 2.1354365 -3.9475353 -0.9822689 1.2550584 1.3374293 1.6911917 -0.28369248 0.97330505 -0.1097991 -1.9133286 2.1476424 -0.8619964 -2.4731903 3.463306 0.26246133 -3.2469647 -0.00076985295 -1.4812216 0.47895578 1.1738136 3.4455805 2.2419617 4.25267 -2.0033765 -0.09740423 -0.13619547 0.45607218 4.1679096 2.332835 -0.33779392 0.32087514 -1.4370255 0.02207846 -1.8473494 -2.1601245 2.9912033 -2.1383739 -4.1074386 -0.23371264 1.0398465 0.3443092 0.2954426 -0.89612806 -2.1726575 0.6461855 2.3557343 -0.34841126 -1.3074085 1.4493505 1.2265563 -3.202948 -0.018280901 -2.8355136 -0.5395589
201 0.52503324 -2.7776246 -2.3277364 2.0787547 1.3262662 -3.4284563 2.6881983 -3.876304 -1.0902199 -1.5886064 1.7542499 -2.045681 1.3358847 4.4399905 -0.27715075 0.015561147 2.9871218 -2.497804 1.4182215 1.3580954 2.033969 1.8665153 3.126874 -1.1158395 -0.21825999 -0.9659036 -1.7042542 1.3559471 1.4302938 1.7901454 -0.5090426 0.03809646 -1.0213513 0.7891298 1.0283365 2.6037114 -0.081013285 -0.2750162 2.4170468 0.78629774 -1.8077707 0.3862683 2.4881675 -2.2456067 -1.7153165 -2.091986 2.672039 -0.91172516 -3.271028 -0.16188832 2.3702283 0.23519972 1.1693723 -0.2013109 -0.722974 -0.5058361 -1.0150318 -0.16075304 1.630834 2.9461875 1.0721451 0.33139706 -0.5348249 1.173305
182 1.376919 -1.8783137 0.38664353 0.47732064 0.5128284 1.2779274 4.828256 -1.7725329 -0.51273215 -2.4362793 1.9865295 -1.5566918 -1.3758155 0.5140515 1.5506722 -0.7645463 -1.1551391 -3.4375145 -3.7716935 0.7599414 -0.33001715 0.040649727 2.1897633 -0.5169686 0.7775896 0.9823697 -0.4126955 1.6457405 1.776401 2.8153753 -3.0633113 -0.99038327 -0.8627504 0.24672006 0.04358741 -3.2991784 4.144034 1.281871 5.5021343 2.9244468 -2.596202 -1.9832193 -0.55311584 -0.95200217 -0.48079842 0.4260016 1.7710693 -0.72095793 1.6094575 1.0412087 -2.045545 1.5052166 1.2365959 -3.2501683 0.7439214 -0.45497054 -1.1687523 -0.995255 2.8332717 0.40906966 0.95795476 1.6843059 1.1070377 -2.0685103
28 -2.035809 -0.6198445 0.106561586 1.279083 -0.4898243 -1.3419721 -3.4539857 2.5455995 -4.0497904 1.6971673 2.52222 4.8056607 3.3574271 -5.034404 -1.0459497 0.9118677 0.14817959 0.8170479 0.09208571 -0.6961545 -2.2948859 1.2971038 -0.67507863 -0.19031763 -0.91543025 0.44632903 2.5251725 -0.8917686 -0.158375 -1.5513204 -1.4871439 0.74182075 0.7539773 -0.3888224 0.9992083 0.5538345 -1.0253118 0.79204625 0.5084075 1.7453308 1.4933877 -0.84176487 1.2457445 -1.9738723 -0.032740526 0.8005782 0.92297757 4.8615656 1.8818717 -2.684812 2.9346793 1.9092097 -0.9248984 -1.7504117 0.8113332 1.5549264 -0.49420974 2.4874768 2.8294997 -0.41706452 2.1291833 -1.035275 -2.8104086 -3.2322135
120 -3.734724 -1.5101751 0.68632835 -1.6612767 -2.9509118 -0.030640667 1.0894756 -1.4517107 3.570616 -3.359126 -0.04001961 -3.2349875 0.51309663 -0.7372023 0.012053924 -1.7498076 0.13196646 -3.2678056 -3.7825058 1.489527 1.1227747 -0.094351195 1.6901277 0.5378212 0.13654386 -0.22121455 -1.2007073 2.1942966 2.2785344 1.4779837 -0.44142824 0.11039833 -2.141456 2.6693516 1.0406785 -4.9351535 -0.14046907 -0.35505906 1.4582095 3.0598433 -2.5676157 -1.9160097 -1.6793728 1.9262793 -2.226382 -1.6267112 -0.039306782 -2.4540591 4.0775547 -3.4888694 2.9095187 0.22557579 0.28492892 -0.46594268 1.0726838 0.14868829 0.88240176 0.37773994 0.46766198 0.26757896 2.6428547 1.3279076 0.83039945 -0.23430924
76 1.048531 0.8284414 3.1763978 -2.7974293 -3.4259143 -0.5784127 -0.85570246 -2.8246322 -2.456268 0.5742877 -1.3873105 -3.4812572 0.5889234 -0.8217922 -0.089473516 -1.9916793 -0.04814775 4.3163195 -0.6232065 1.0249243 0.40370828 -1.799168 -0.2547127 -0.873472 0.83661115 -0.91594744 -0.28406444 -1.2945855 2.0746992 -1.169191 -0.7376357 1.0964999 -1.3935548 -0.94588196 0.5662739 1.4527805 2.4365041 -0.5157054 -0.37526226 -2.8541336 2.0625925 -0.005826498 0.13882162 -0.032693718 1.6752231 -1.0575423 0.031702578 1.7351884 -0.7254671 0.1994436 -2.899292 -0.6696573 2.2521653 -0.07427665 -2.2296927 1.4824283 -0.6538733 0.9645046 -1.2123507 0.68989027 -0.5173784 1.4425384 -0.64238197 0.99910986
75 -0.7005 1.046998 3.5571969 -2.9859197 -2.2619257 0.10499671 0.035261933 -3.4004812 -2.055187 0.56066364 -1.4030852 -2.1396115 1.3192278 -1.5722225 0.1232754 -1.9481828 0.07000734 4.7147417 0.23192984 -0.755426 0.45601457 -2.3645124 0.5445442 -0.7146582 0.55920094 -0.54229003 0.70576394 -1.9125404 1.6673414 -0.22043721 0.1581944 1.9887464 -2.3538702 0.59767807 0.7329229 0.6251006 1.8632473 -0.529344 0.30425036 -3.6520934 1.8689212 0.799646 0.16168936 -0.75872177 1.4683149 0.49988687 -0.8059866 1.656456 -0.28394347 0.006398182 -1.0973493 0.17127487 2.351797 -0.0012201272 -2.3247063 2.0615683 -1.1609725 0.7342009 -1.4586004 2.017143 -0.990657 1.6789705 -0.17936493 -1.4350775
148 -0.53329086 0.01942667 3.6629457 -1.7431612 -0.86374515 -0.676253 0.390643 2.292382 1.048416 -0.774811 -1.5443863 -0.58898467 0.6787386 2.993678 1.6021221 -3.3644562 -0.349148 -2.0539432 0.9417419 -1.5214434 -0.869341 1.4326152 0.63716865 0.79218745 -3.529467 -0.8616817 -1.7694567 1.8261517 -1.3244683 0.28825682 0.5850887 3.9506629 3.2276378 -4.632836 -2.5923412 -2.693819 1.7094028 2.5681343 1.1898744 1.2902237 0.04959547 0.27157173 -0.6041574 -1.9752661 0.81452626 -3.6682043 -1.5613875 -1.8815786 1.337519 -0.30010182 -0.6762466 2.450596 -4.0708966 -2.0297625 -4.2666044 -0.32718188 -0.24521801 -0.6583916 2.0573866 0.021646742 -2.281805 -0.26547107 2.7236052 -1.1033098
152 0.038446166 -2.8967226 1.1757421 -0.7380521 0.99324477 0.4015579 1.968657 -1.018241 2.6294296 -0.8986032 -2.6762834 -0.87243664 -0.69072163 0.35403576 2.582399 -3.8924599 -0.09318596 -1.8371568 -0.009792815 2.5060153 -3.0979981 1.6262612 -0.30993736 -0.16736275 -2.8226192 1.4772924 -1.0750854 1.148316 -3.6768508 -1.1966823 0.9083294 2.5950458 1.4104611 -3.173755 0.72430444 -2.4262033 -1.5510913 2.518656 -0.6593 0.9980502 2.266009 2.190292 -0.05255536 -4.3603435 1.0106373 -1.9471042 -1.6705555 -1.3245966 1.4814501 1.0602155 -0.07866733 0.0953599 -1.4638959 -0.42634445 -5.1754355 2.347333 0.8301808 0.8977223 2.3507357 1.5805784 -1.0173002 0.7534591 3.9455392 0.027381223
119 -2.8193886 -1.9330719 -0.24582857 -0.52065235 -2.9279406 0.11648542 1.4009956 -1.4393045 3.603534 -3.2828362 -1.1156063 -1.5840738 0.13118936 -1.5308099 1.1659629 -0.60388744 -0.29248142 -1.5905478 -4.732073 0.56820667 -0.27909565 0.38284153 3.2371054 -0.41021228 -0.25578314 2.047183 0.65138656 -0.1552628 -0.5793286 1.6885064 -1.2839051 2.7542915 -0.45443133 2.2217777 0.69085985 -3.99778 -0.19760837 -0.7286984 3.1889646 2.9514759 -1.8426582 -3.1334724 0.87594014 3.1753957 -0.5372611 -2.2811527 1.2156264 -2.3338645 2.8162081 -2.3768647 0.3976591 0.040064227 1.0923774 -0.39579523 0.47417998 -0.17967163 -0.10612861 -1.6020732 -0.44054827 2.357651 1.1329519 1.5018765 1.3774955 2.2540803
1 0.7830745 1.8568274 -0.9673418 3.7554235 0.15408267 -3.3794215 0.024361262 -0.08140132 -2.3927789 2.9010022 2.7061892 1.5566375 2.9130635 -3.1012316 -0.36996108 0.41517848 -0.98555934 0.5632588 -1.5803924 2.5874207 -1.233966 1.3206923 -0.35068682 0.86682737 0.760298 1.1638217 0.01512767 0.18639313 -0.989747 -3.4264715 -0.8746658 2.051869 -0.022840114 -0.6420924 -0.9733135 -0.10896383 -0.18784009 1.4672469 -2.3287299 2.532271 1.8296942 -0.49231213 1.2967881 -1.9244508 1.700675 -0.19887654 3.465204 4.8126554 3.4006076 -3.1370282 1.7997464 0.40249157 -1.8774812 -0.7636125 0.6497445 1.2158401 -0.26873302 -0.88740164 0.7678491 -1.3633733 -1.4062568 -1.0574212 -2.9900877 -3.1319442
129 -0.72227186 -1.2747313 1.244031 1.0496684 2.2042336 4.0877266 -1.3359659 1.6912668 0.64139307 2.5923274 1.8236669 0.44268486 -1.3530782 1.8018295 0.12573588 -0.75937706 1.9233549 -2.6029043 -2.5492043 0.14591214 -2.3232496 -0.83861417 -0.85212255 3.9381979 0.6513483 0.6544859 -1.3593873 -1.4985164 1.0070077 -1.4496368 -2.2669222 -2.1431894 -1.5267652 -2.1500936 -0.15765469 2.3401704 0.7295562 -1.0613899 -2.7205436 0.02533366 -1.2183883 -1.0669454 -0.45962402 1.2249075 1.0767306 -1.4506576 -4.184593 -1.4710894 1.2812356 -0.871631 0.044131387 -0.102411725 1.2413366 0.40480694 -0.44092816 -0.18444146 -2.146652 -0.9568602 -1.8753557 3.381065 0.2915469 -2.4634311 -1.8518113 1.5683652
78 -0.51288307 0.4913446 4.0125017 -2.1860385 -3.2009149 1.5906637 0.05701352 -2.1748528 -2.104159 -0.03835737 -1.5916001 -1.2727334 0.43170136 -1.2765896 0.77372295 -2.9391181 -0.060560074 4.0281615 0.9837765 -0.46351168 -0.32060608 -1.2184277 0.824088 -1.5147201 0.41873085 -0.99776345 -0.009033913 -0.4442249 3.0876331 1.0172079 -1.0155166 2.2627137 -3.1818912 -0.2252992 1.5057695 0.0983307 1.0098287 -0.18742763 -1.328694 -4.713564 0.8171528 -0.82401454 -1.0842066 -1.568172 -0.380835 0.41769028 1.7118726 1.7527581 -0.89272535 -0.17064986 -1.755353 -0.2446669 1.5133008 -0.8505392 -0.8265216 3.5356696 -0.68561023 1.969054 -2.6879196 1.4891876 -0.75714195 1.6171511 -1.2987635 -1.2085165
145 -1.360502 -0.8510803 1.7856479 0.99406993 -2.762904 1.4464954 -0.52858114 2.5149848 1.8571899 1.1926377 0.12451584 -2.1678846 -1.0109231 1.8474582 2.0599496 -1.6098733 -0.9292063 -0.9831173 -1.9401872 -2.2776914 -1.8339607 -1.521027 3.0415542 -0.3800406 -1.820755 -1.8816037 -2.5857444 1.7468429 -2.253436 4.1780944 -0.4359522 2.5590138 2.3452477 -1.1656593 -1.5334537 -3.8982525 2.2731156 0.755416 -0.1619544 -1.236532 0.13489829 0.12539008 0.35933617 -0.9640737 0.5534229 -1.0707302 -2.1370416 -1.2536862 3.7207873 0.043845944 0.69655675 5.853738 -3.0347219 -3.7057424 -3.1522477 -1.3970152 -0.83819723 1.9256591 3.6907637 0.39061844 0.13186683 1.0299481 2.2221365 0.4383019
146 0.6259568 -1.9271436 0.5467822 1.1009263 -0.9756938 -0.22781971 -0.5443139 2.8187716 0.0663039 1.0780574 0.76591873 -2.644418 3.0889864 2.1100106 0.9093445 -2.801426 0.3435117 -1.5645436 1.1306983 -2.150638 -0.044173744 -0.119738154 0.15327798 0.8684575 -1.7215307 -0.48407814 -1.1303117 1.1108154 -1.496041 4.265 0.6802301 3.069406 4.142028 -1.6870049 -2.595553 -2.6982875 1.3986808 3.664735 1.9314506 0.41789064 -0.009400077 0.124238074 0.355518 -0.61127985 -0.68554145 -1.4244571 -2.238514 -2.4158692 3.0590568 -0.43172565 -2.7712073 3.6065867 0.019308317 -3.654281 -2.6593184 -0.17035398 0.6284205 -1.2508255 0.6859229 -0.2899304 -2.4337015 2.1739044 3.3668246 -0.39326292
